{"learner":{"attributes":{"best_iteration":"99","best_score":"0.9835827186512118"},"feature_names":[],"feature_types":[],"gradient_booster":{"model":{"gbtree_model_param":{"num_parallel_tree":"1","num_trees":"100"},"iteration_indptr":[0,1,2,3,4,5,6,7,8,9,10,11,12,13,14,15,16,17,18,19,20,21,22,23,24,25,26,27,28,29,30,31,32,33,34,35,36,37,38,39,40,41,42,43,44,45,46,47,48,49,50,51,52,53,54,55,56,57,58,59,60,61,62,63,64,65,66,67,68,69,70,71,72,73,74,75,76,77,78,79,80,81,82,83,84,85,86,87,88,89,90,91,92,93,94,95,96,97,98,99,100],"tree_info":[0,0,0,0,0,0,0,0,0,0,0,0,0,0,0,0,0,0,0,0,0,0,0,0,0,0,0,0,0,0,0,0,0,0,0,0,0,0,0,0,0,0,0,0,0,0,0,0,0,0,0,0,0,0,0,0,0,0,0,0,0,0,0,0,0,0,0,0,0,0,0,0,0,0,0,0,0,0,0,0,0,0,0,0,0,0,0,0,0,0,0,0,0,0,0,0,0,0,0,0],"trees":[{"base_weights":[3.2270403E-4,2.5451806E-1,-1.2241033E0,-7.852767E-3,1.9872011E-1,-1.2857256E0,6.553216E-1,3.2987976E-1,-8.432091E-1,-1.0913699E0,-1.7438838E0,-1.1735264E-1,1.6637789E-1,-2.2006892E-1,1.9890511E-1,-1.826064E0,-6.7265713E-1,-1.2053682E0,1.7197719E-1,-1.8131166E0,-5.274881E-1,-9.9437945E-2,1.3577181E-2,-1.8862909E-1,-1.45622045E-2,-9.037749E-2,1.4564275E-2,-8.934853E-2,-1.5284954E-1,-1.0423408E-1,-1.901072E-1,-1.440193E-1,8.725598E-2],"categories":[],"categories_nodes":[],"categories_segments":[],"categories_sizes":[],"default_left":[0,0,0,0,0,0,0,0,0,0,0,0,0,0,0,0,0,0,0,0,0,0,0,0,0,0,0,0,0,0,0,0,0],"id":0,"left_children":[1,3,5,7,-1,9,11,13,15,17,19,-1,-1,21,-1,23,25,27,-1,29,31,-1,-1,-1,-1,-1,-1,-1,-1,-1,-1,-1,-1],"loss_changes":[4.784401E2,5.7904E2,3.1509613E1,3.1257355E2,0E0,2.0631195E1,1.860035E1,7.203168E2,5.1995087E1,6.0586548E1,5.0835114E0,0E0,0E0,1.6367976E2,0E0,4.2282867E0,5.193273E1,1.6154205E1,0E0,2.4696503E0,8.341486E0,0E0,0E0,0E0,0E0,0E0,0E0,0E0,0E0,0E0,0E0,0E0,0E0],"parents":[2147483647,0,0,1,1,2,2,3,3,5,5,6,6,7,7,8,8,9,9,10,10,13,13,15,15,16,16,17,17,19,19,20,20],"right_children":[2,4,6,8,-1,10,12,14,16,18,20,-1,-1,22,-1,24,26,28,-1,30,32,-1,-1,-1,-1,-1,-1,-1,-1,-1,-1,-1,-1],"split_conditions":[5E-1,8.135491E-4,4.3156285E0,0E0,1.9872011E-1,5E-1,1.2293613E0,-4.9494278E-1,-3.4684563E-1,3.5214573E-3,1.3506174E-1,-1.1735264E-1,1.6637789E-1,8.0383325E-1,1.9890511E-1,3.2486188E0,3.302213E0,9.959937E-1,1.7197719E-1,8.234441E-2,1.7840084E-1,-9.9437945E-2,1.3577181E-2,-1.8862909E-1,-1.45622045E-2,-9.037749E-2,1.4564275E-2,-8.934853E-2,-1.5284954E-1,-1.0423408E-1,-1.901072E-1,-1.440193E-1,8.725598E-2],"split_indices":[10,10,35,10,0,11,44,10,3,11,32,0,0,44,0,46,39,13,0,36,41,0,0,0,0,0,0,0,0,0,0,0,0],"split_type":[0,0,0,0,0,0,0,0,0,0,0,0,0,0,0,0,0,0,0,0,0,0,0,0,0,0,0,0,0,0,0,0,0],"sum_hessian":[1.5355E3,1.27225E3,2.6325E2,1.10575E3,1.665E2,2.5525E2,8E0,7.8775E2,3.18E2,1.8175E2,7.35E1,2.75E0,5.25E0,5.9225E2,1.955E2,4.55E1,2.725E2,1.7525E2,6.5E0,6.9E1,4.5E0,1.86E2,4.0625E2,4.375E1,1.75E0,2.125E2,6E1,9.125E1,8.4E1,8.5E0,6.05E1,2.75E0,1.75E0],"tree_param":{"num_deleted":"0","num_feature":"49","num_nodes":"33","size_leaf_vector":"1"}},{"base_weights":[-6.5874066E-3,2.2875014E-1,-1.0805733E0,-9.282432E-3,1.8076342E-1,-8.86875E-1,-1.5584459E0,2.8982306E-1,-7.613843E-1,-1.014822E0,1.6419102E-1,-1.1318576E0,-1.7587745E-1,-2.1069461E-1,1.8092898E-1,-1.6758528E0,-6.0554403E-1,-1.542994E0,-7.6862663E-1,-6.101094E-1,-1.6799061E-1,3.8899984E-2,-6.785418E-2,-5.1113095E-2,-1.7166118E-1,-3.623869E-2,-1.17834486E-1,-1.710198E-2,-1.6464029E-1,-1.2398099E-1,-4.031599E-2,-1.0833549E-1,1.0223458E-1],"categories":[],"categories_nodes":[],"categories_segments":[],"categories_sizes":[],"default_left":[0,0,0,0,0,0,0,0,0,0,0,0,0,0,0,0,0,0,0,0,0,0,0,0,0,0,0,0,0,0,0,0,0],"id":1,"left_children":[1,3,5,7,-1,9,11,13,15,17,-1,19,-1,21,-1,23,25,27,29,31,-1,-1,-1,-1,-1,-1,-1,-1,-1,-1,-1,-1,-1],"loss_changes":[3.7842435E2,4.6163208E2,2.3284576E1,2.4049548E2,0E0,6.436374E1,4.22818E0,5.820793E2,4.2111755E1,2.2676407E1,0E0,6.552185E0,0E0,1.6190851E2,0E0,9.713516E-1,3.5852455E1,7.735153E0,2.1463882E1,1.3203413E1,0E0,0E0,0E0,0E0,0E0,0E0,0E0,0E0,0E0,0E0,0E0,0E0,0E0],"parents":[2147483647,0,0,1,1,2,2,3,3,5,5,6,6,7,7,8,8,9,9,11,11,13,13,15,15,16,16,17,17,18,18,19,19],"right_children":[2,4,6,8,-1,10,12,14,16,18,-1,20,-1,22,-1,24,26,28,30,32,-1,-1,-1,-1,-1,-1,-1,-1,-1,-1,-1,-1,-1],"split_conditions":[5E-1,8.135491E-4,5E-1,0E0,1.8076342E-1,3.5214573E-3,3.8032734E-3,-4.9494278E-1,-3.4684563E-1,-1.1246923E-1,1.6419102E-1,1.5274376E0,-1.7587745E-1,-1.0187515E0,1.8092898E-1,-9.1971874E-1,5E-1,5.0784122E-2,-4.938295E-1,5.909714E-1,-1.6799061E-1,3.8899984E-2,-6.785418E-2,-5.1113095E-2,-1.7166118E-1,-3.623869E-2,-1.17834486E-1,-1.710198E-2,-1.6464029E-1,-1.2398099E-1,-4.031599E-2,-1.0833549E-1,1.0223458E-1],"split_indices":[10,10,11,10,0,11,38,10,3,5,0,45,0,3,0,15,11,32,11,34,0,0,0,0,0,0,0,0,0,0,0,0,0],"split_type":[0,0,0,0,0,0,0,0,0,0,0,0,0,0,0,0,0,0,0,0,0,0,0,0,0,0,0,0,0,0,0,0,0],"sum_hessian":[1.4949176E3,1.2267906E3,2.6812704E2,1.0668788E3,1.5991187E2,1.9297339E2,7.5153656E1,7.636588E2,3.0321994E2,1.8428737E2,8.68601E0,2.6299519E1,4.8854137E1,5.750356E2,1.8862323E2,4.2636158E1,2.6058377E2,5.678687E1,1.275005E2,1.4649109E1,1.1650409E1,2.5198795E2,3.2304767E2,1.9823636E0,4.0653797E1,1.8419794E2,7.638583E1,4.2339454E0,5.2552925E1,5.4530384E1,7.297012E1,1.1665055E1,2.9840536E0],"tree_param":{"num_deleted":"0","num_feature":"49","num_nodes":"33","size_leaf_vector":"1"}},{"base_weights":[1.2800604E-2,2.374768E-1,-9.285216E-1,-2.9750176E-2,1.82061E-1,-1.2727953E0,-4.1666666E-1,-8.475305E-1,2.2140148E-1,-1.4566776E0,-9.108495E-1,-4.6162292E-2,-1.5334511E0,-1.3103691E0,-3.563065E-1,4.963869E-1,-5.668161E-1,8.391705E-3,-1.4789451E0,-1.4281094E0,-3.7689656E-1,3.283026E-1,-8.574506E-1,-1.736521E-1,-5.152728E-1,-1.4357112E-1,3.125404E-2,1.7629017E-1,-1.1372266E-1,-1.1558132E-3,1.8270077E-1,-3.788696E-2,-1.4004613E-1,-1.5468869E-1,-8.782966E-2,-6.904934E-2,-1.5641402E-1,-1.0988539E-1,2.6070235E-2,-9.36021E-2,5.659151E-2,-1.6893384E-1,-2.2699228E-2,1.12500824E-1,-1.3731322E-1],"categories":[],"categories_nodes":[],"categories_segments":[],"categories_sizes":[],"default_left":[0,0,0,0,0,0,0,0,0,0,0,0,0,0,0,0,0,0,0,0,0,0,0,0,0,0,0,0,0,0,0,0,0,0,0,0,0,0,0,0,0,0,0,0,0],"id":2,"left_children":[1,3,5,7,-1,9,11,13,15,17,19,21,23,25,27,29,31,-1,33,35,37,39,41,-1,43,-1,-1,-1,-1,-1,-1,-1,-1,-1,-1,-1,-1,-1,-1,-1,-1,-1,-1,-1,-1],"loss_changes":[3.174709E2,5.1304224E2,5.026761E1,2.1344722E2,0E0,9.90506E0,4.855912E1,5.4885056E1,1.7255354E2,4.11998E0,1.6102238E1,2.756542E1,4.9328995E0,2.603917E1,2.0043668E2,3.9889703E2,3.155954E1,0E0,2.925766E0,1.7529716E0,1.4834286E1,1.9108685E1,1.4460545E1,0E0,1.0535284E1,0E0,0E0,0E0,0E0,0E0,0E0,0E0,0E0,0E0,0E0,0E0,0E0,0E0,0E0,0E0,0E0,0E0,0E0,0E0,0E0],"parents":[2147483647,0,0,1,1,2,2,3,3,5,5,6,6,7,7,8,8,9,9,10,10,11,11,12,12,13,13,14,14,15,15,16,16,18,18,19,19,20,20,21,21,22,22,24,24],"right_children":[2,4,6,8,-1,10,12,14,16,18,20,22,24,26,28,30,32,-1,34,36,38,40,42,-1,44,-1,-1,-1,-1,-1,-1,-1,-1,-1,-1,-1,-1,-1,-1,-1,-1,-1,-1,-1,-1],"split_conditions":[5E-1,3.5214573E-3,6.6016865E-1,2.5196094E-3,1.82061E-1,1.407728E0,2.3685644E0,-4.938295E-1,0E0,-6.187947E-1,1.4040852E0,9.762666E-1,2.64454E0,7.313556E-1,0E0,-4.938295E-1,1.6500249E0,8.391705E-3,4.3787136E0,-5.667373E-1,8.8751E-2,-4.268063E-1,1.1795319E0,-1.736521E-1,1.8808072E0,-1.4357112E-1,3.125404E-2,1.7629017E-1,-1.1372266E-1,-1.1558132E-3,1.8270077E-1,-3.788696E-2,-1.4004613E-1,-1.5468869E-1,-8.782966E-2,-6.904934E-2,-1.5641402E-1,-1.0988539E-1,2.6070235E-2,-9.36021E-2,5.659151E-2,-1.6893384E-1,-2.2699228E-2,1.12500824E-1,-1.3731322E-1],"split_indices":[11,11,44,37,0,45,37,11,11,5,36,46,40,32,11,11,44,0,43,1,32,6,36,0,43,0,0,0,0,0,0,0,0,0,0,0,0,0,0,0,0,0,0,0,0],"split_type":[0,0,0,0,0,0,0,0,0,0,0,0,0,0,0,0,0,0,0,0,0,0,0,0,0,0,0,0,0,0,0,0,0,0,0,0,0,0,0,0,0,0,0,0,0],"sum_hessian":[1.4993805E3,1.2111543E3,2.8822617E2,1.0370262E3,1.7412811E2,1.7131659E2,1.16909584E2,2.4319084E2,7.938353E2,1.1141345E2,5.9903137E1,8.863494E1,2.8274647E1,1.2424973E2,1.1894112E2,5.888874E2,2.0494798E2,1.4839808E0,1.09929474E2,2.9481468E1,3.042167E1,6.0966713E1,2.7668226E1,2.2903036E1,5.3716106E0,1.15505844E2,8.743884E0,3.16543E1,8.728682E1,4.268571E2,1.6203029E2,1.6852762E2,3.6420364E1,9.719368E1,1.2735799E1,5.650922E0,2.3830547E1,1.4001311E1,1.6420359E1,9.113602E0,5.185311E1,1.1136066E1,1.653216E1,1.6976376E0,3.673973E0],"tree_param":{"num_deleted":"0","num_feature":"49","num_nodes":"45","size_leaf_vector":"1"}},{"base_weights":[-1.5846797E-3,1.9418624E-1,-9.175923E-1,-1.2747856E-2,1.6058972E-1,-1.4020382E0,-6.8720967E-1,2.4718565E-1,-6.7873985E-1,-1.0292083E0,-1.572409E0,-3.8938856E-1,-1.434806E0,-1.8928993E-1,1.6122425E-1,-3.8405275E-1,-1.2374169E0,-1.5045981E-1,-2.8860888E-1,-4.212099E-2,-1.5885411E-1,-1.06596E0,-5.2413914E-2,2.2499892E-1,-1.5249864E0,-1.21015154E-1,9.752856E-3,-8.224159E-2,9.5682535E-3,-1.374921E-1,3.44753E-2,-1.3448451E-1,3.623683E-2,-4.6876557E-2,-1.4321072E-1,-1.0481792E-1,1.9106088E-2,-8.468003E-2,1.21838115E-1,1.078575E-2,-1.5812297E-1],"categories":[],"categories_nodes":[],"categories_segments":[],"categories_sizes":[],"default_left":[0,0,0,0,0,0,0,0,0,0,0,0,0,0,0,0,0,0,0,0,0,0,0,0,0,0,0,0,0,0,0,0,0,0,0,0,0,0,0,0,0],"id":3,"left_children":[1,3,5,7,-1,9,11,13,15,17,19,21,23,25,-1,27,29,-1,31,-1,-1,33,35,37,39,-1,-1,-1,-1,-1,-1,-1,-1,-1,-1,-1,-1,-1,-1,-1,-1],"loss_changes":[2.653289E2,3.5617798E2,2.7907516E1,1.843625E2,0E0,3.3855286E0,3.904225E1,4.5669696E2,4.8588913E1,9.621668E0,1.4764404E-1,2.9298807E1,8.0223465E0,1.7036765E2,0E0,4.1646812E1,2.291681E1,0E0,9.307587E0,0E0,0E0,8.501709E0,2.1481863E1,4.7030544E0,4.7280273E0,0E0,0E0,0E0,0E0,0E0,0E0,0E0,0E0,0E0,0E0,0E0,0E0,0E0,0E0,0E0,0E0],"parents":[2147483647,0,0,1,1,2,2,3,3,5,5,6,6,7,7,8,8,9,9,10,10,11,11,12,12,13,13,15,15,16,16,18,18,21,21,22,22,23,23,24,24],"right_children":[2,4,6,8,-1,10,12,14,16,18,20,22,24,26,-1,28,30,-1,32,-1,-1,34,36,38,40,-1,-1,-1,-1,-1,-1,-1,-1,-1,-1,-1,-1,-1,-1,-1,-1],"split_conditions":[5E-1,8.135491E-4,8.44912E-2,0E0,1.6058972E-1,2.4974453E-1,6.5576917E-1,-4.9494278E-1,1.0182377E0,4.8019537E-1,-6.0159785E-1,-5.19084E-2,-9.8943967E-1,2.5196094E-3,1.6122425E-1,2.5196094E-3,4.4581256E0,-1.5045981E-1,1.028926E0,-4.212099E-2,-1.5885411E-1,3.8926294E-1,-2.8076783E-1,5.8784723E-1,-6.0159785E-1,-1.21015154E-1,9.752856E-3,-8.224159E-2,9.5682535E-3,-1.374921E-1,3.44753E-2,-1.3448451E-1,3.623683E-2,-4.6876557E-2,-1.4321072E-1,-1.0481792E-1,1.9106088E-2,-8.468003E-2,1.21838115E-1,1.078575E-2,-1.5812297E-1],"split_indices":[10,10,37,10,0,46,6,10,37,44,7,7,15,37,0,37,39,0,34,0,0,40,14,0,7,0,0,0,0,0,0,0,0,0,0,0,0,0,0,0,0],"split_type":[0,0,0,0,0,0,0,0,0,0,0,0,0,0,0,0,0,0,0,0,0,0,0,0,0,0,0,0,0,0,0,0,0,0,0,0,0,0,0,0,0],"sum_hessian":[1.477179E3,1.2176246E3,2.5955426E2,1.0627611E3,1.5486354E2,8.187298E1,1.7768127E2,7.647583E2,2.980028E2,2.8071297E1,5.3801685E1,1.2824625E2,4.9435036E1,5.8006964E2,1.8468863E2,1.9631718E2,1.0168563E2,1.638632E1,1.1684977E1,1.2038336E0,5.259785E1,4.1820244E1,8.6426E1,2.4133089E0,4.7021725E1,1.2659928E2,4.5347037E2,1.0231758E2,9.399961E1,9.373357E1,7.952062E0,4.1077375E0,7.577239E0,1.686554E1,2.4954704E1,1.6411549E1,7.001445E1,1.1833924E0,1.2299165E0,1.4759713E0,4.5545753E1],"tree_param":{"num_deleted":"0","num_feature":"49","num_nodes":"41","size_leaf_vector":"1"}},{"base_weights":[-2.160623E-2,1.7033741E-1,-9.0820456E-1,-1.1445771E-2,1.5128224E-1,-1.383491E0,-7.032549E-1,-6.6849196E-1,1.960522E-1,-1.0689917E0,-1.5221175E0,-2.89339E-1,-1.1414182E0,-1.1232792E0,-2.3600672E-1,4.2546037E-1,-4.890931E-1,-1.4090048E0,-4.6379796E-1,-1.5409124E-1,-4.4675898E-2,-1.0932612E0,9.3119636E-2,-1.2567246E0,-1.2177096E-2,-1.194331E-1,3.36203E-2,1.4791761E-1,-7.5544216E-2,6.8433173E-3,1.5182696E-1,5.87597E-2,-1.0069694E-1,-1.4961205E-1,-9.045563E-3,-1.0066229E-1,6.8857715E-2,-1.2518947E-1,-1.6296385E-3,-1.2749241E-1,3.5046652E-2,-3.5536896E-2,-1.3931972E-1,1.363463E-1,-7.891421E-2],"categories":[],"categories_nodes":[],"categories_segments":[],"categories_sizes":[],"default_left":[0,0,0,0,0,0,0,0,0,0,0,0,0,0,0,0,0,0,0,0,0,0,0,0,0,0,0,0,0,0,0,0,0,0,0,0,0,0,0,0,0,0,0,0,0],"id":4,"left_children":[1,3,5,7,-1,9,11,13,15,17,19,21,23,25,27,29,31,33,35,-1,-1,37,39,41,43,-1,-1,-1,-1,-1,-1,-1,-1,-1,-1,-1,-1,-1,-1,-1,-1,-1,-1,-1,-1],"loss_changes":[2.5041986E2,2.9528424E2,2.4329391E1,1.4551202E2,0E0,1.5024109E0,3.310919E1,4.9988876E1,1.27642746E2,4.788925E0,1.5100098E-1,2.9926327E1,1.1510506E1,1.33975525E1,1.192657E2,2.3698254E2,1.14237595E2,1.6496162E0,7.8798695E0,0E0,0E0,5.2050133E0,2.3712608E1,9.307495E0,1.1045743E1,0E0,0E0,0E0,0E0,0E0,0E0,0E0,0E0,0E0,0E0,0E0,0E0,0E0,0E0,0E0,0E0,0E0,0E0,0E0,0E0],"parents":[2147483647,0,0,1,1,2,2,3,3,5,5,6,6,7,7,8,8,9,9,10,10,11,11,12,12,13,13,14,14,15,15,16,16,17,17,18,18,21,21,22,22,23,23,24,24],"right_children":[2,4,6,8,-1,10,12,14,16,18,20,22,24,26,28,30,32,34,36,-1,-1,38,40,42,44,-1,-1,-1,-1,-1,-1,-1,-1,-1,-1,-1,-1,-1,-1,-1,-1,-1,-1,-1,-1],"split_conditions":[5E-1,8.135491E-4,8.941189E-3,2.5196094E-3,1.5128224E-1,1.6641262E-1,3.9095515E-1,-4.9494278E-1,0E0,4.6068737E-1,9.440783E-1,-5.9945233E-2,2.413347E0,7.4452007E-1,0E0,-4.9494278E-1,4.7319758E-1,8.116492E-1,5.1293766E-1,-1.5409124E-1,-4.4675898E-2,1.4499354E0,-2.0461132E-1,-4.1323125E-1,-5.2897036E-1,-1.194331E-1,3.36203E-2,1.4791761E-1,-7.5544216E-2,6.8433173E-3,1.5182696E-1,5.87597E-2,-1.0069694E-1,-1.4961205E-1,-9.045563E-3,-1.0066229E-1,6.8857715E-2,-1.2518947E-1,-1.6296385E-3,-1.2749241E-1,3.5046652E-2,-3.5536896E-2,-1.3931972E-1,1.363463E-1,-7.891421E-2],"split_indices":[10,10,37,37,0,46,6,10,10,44,0,7,44,32,10,10,37,3,7,0,0,41,5,7,0,0,0,0,0,0,0,0,0,0,0,0,0,0,0,0,0,0,0,0,0],"split_type":[0,0,0,0,0,0,0,0,0,0,0,0,0,0,0,0,0,0,0,0,0,0,0,0,0,0,0,0,0,0,0,0,0,0,0,0,0,0,0,0,0,0,0,0,0],"sum_hessian":[1.4691841E3,1.2082909E3,2.6089322E2,1.0649985E3,1.4329233E2,7.6725464E1,1.8416774E2,2.5519116E2,8.098074E2,2.6358673E1,5.0366795E1,9.567544E1,8.849231E1,1.23497154E2,1.3169402E2,6.070672E2,2.0274017E2,1.5920631E1,1.0438041E1,4.898473E1,1.3820653E0,3.0328451E1,6.5346985E1,8.011077E1,8.381534E0,1.1800264E2,5.49451E0,3.0137941E1,1.01556076E2,4.5844473E2,1.4862244E2,6.573863E1,1.3700154E2,1.473649E1,1.1841414E0,7.240615E0,3.1974258E0,2.6212198E1,4.1162534E0,9.658765E0,5.5688217E1,1.1104692E1,6.900608E1,2.7063303E0,5.6752033E0],"tree_param":{"num_deleted":"0","num_feature":"49","num_nodes":"45","size_leaf_vector":"1"}},{"base_weights":[-1.0851765E-3,1.8266368E-1,-7.879036E-1,-4.8431452E-2,1.6158003E0,-1.0642135E0,-3.358855E-1,2.0141959E-1,-6.681087E-1,1.899775E-1,1.5271603E-1,-1.2110091E0,-5.401699E-1,2.3556635E-2,-1.2458788E0,-2.3407343E-1,1.6079402E-1,-1.1633954E0,-4.6936324E-1,-1.4626787E0,-1.0425835E0,4.186799E-1,-9.04139E-1,3.0724683E-1,-1.1592964E0,-1.4822552E0,3.2630527E-1,-7.638358E-2,3.6234748E-2,-1.4000364E-1,-3.840577E-2,1.4804661E-1,-8.258974E-2,-1.4882201E-1,-5.6451943E-2,-1.2557894E-1,-6.428163E-2,-6.750574E-2,1.1262112E-1,-1.215375E-1,2.2782546E-2,-7.77769E-2,5.6364458E-2,-1.4569354E-1,-2.8618962E-2,-1.5516177E-1,-0E0,9.163978E-2,-7.562416E-2],"categories":[],"categories_nodes":[],"categories_segments":[],"categories_sizes":[],"default_left":[0,0,0,0,0,0,0,0,0,0,0,0,0,0,0,0,0,0,0,0,0,0,0,0,0,0,0,0,0,0,0,0,0,0,0,0,0,0,0,0,0,0,0,0,0,0,0,0,0],"id":5,"left_children":[1,3,5,7,9,11,13,15,17,-1,-1,19,21,23,25,27,-1,29,31,33,35,37,39,41,43,45,47,-1,-1,-1,-1,-1,-1,-1,-1,-1,-1,-1,-1,-1,-1,-1,-1,-1,-1,-1,-1,-1,-1],"loss_changes":[2.0640057E2,3.8339023E2,3.326242E1,1.5456932E2,8.02063E-1,1.2029709E1,3.4216137E1,4.3620142E2,2.7529266E1,0E0,0E0,3.7189941E0,1.3874534E1,2.5625648E1,1.15942E1,1.7218266E2,0E0,1.4282959E1,1.4474223E2,8.441162E-2,5.9387207E0,9.480208E0,1.0353844E1,1.7609728E1,3.2437553E0,2.6305046E0,3.66741E0,0E0,0E0,0E0,0E0,0E0,0E0,0E0,0E0,0E0,0E0,0E0,0E0,0E0,0E0,0E0,0E0,0E0,0E0,0E0,0E0,0E0,0E0],"parents":[2147483647,0,0,1,1,2,2,3,3,4,4,5,5,6,6,7,7,8,8,11,11,12,12,13,13,14,14,15,15,17,17,18,18,19,19,20,20,21,21,22,22,23,23,24,24,25,25,26,26],"right_children":[2,4,6,8,10,12,14,16,18,-1,-1,20,22,24,26,28,-1,30,32,34,36,38,40,42,44,46,48,-1,-1,-1,-1,-1,-1,-1,-1,-1,-1,-1,-1,-1,-1,-1,-1,-1,-1,-1,-1,-1,-1],"split_conditions":[5E-1,3.5214573E-3,6.898594E-1,0E0,-4.9494278E-1,3.302213E0,2.2405875E0,-4.938295E-1,-4.9494278E-1,1.899775E-1,1.5271603E-1,7.743188E-2,3.5973625E0,4.3914676E-1,8.2296455E-1,5.9658015E-1,1.6079402E-1,7.8699255E-1,0E0,2.8472173E0,8.590553E-1,1.2076201E0,1.5729112E-3,-4.107392E-1,3.1922874E-3,8.873033E-1,7.8914183E-1,-7.638358E-2,3.6234748E-2,-1.4000364E-1,-3.840577E-2,1.4804661E-1,-8.258974E-2,-1.4882201E-1,-5.6451943E-2,-1.2557894E-1,-6.428163E-2,-6.750574E-2,1.1262112E-1,-1.215375E-1,2.2782546E-2,-7.77769E-2,5.6364458E-2,-1.4569354E-1,-2.8618962E-2,-1.5516177E-1,-0E0,9.163978E-2,-7.562416E-2],"split_indices":[11,11,44,11,10,39,37,11,10,0,0,32,39,0,38,32,0,41,10,47,34,45,33,6,8,3,48,0,0,0,0,0,0,0,0,0,0,0,0,0,0,0,0,0,0,0,0,0,0],"split_type":[0,0,0,0,0,0,0,0,0,0,0,0,0,0,0,0,0,0,0,0,0,0,0,0,0,0,0,0,0,0,0,0,0,0,0,0,0,0,0,0,0,0,0,0,0,0,0,0,0],"sum_hessian":[1.4252031E3,1.1559015E3,2.6930157E2,9.9616504E2,1.5973648E2,1.6615724E2,1.0314432E2,7.102921E2,2.8587292E2,3.28702E1,1.2686628E2,1.2862497E2,3.7532272E1,7.45584E1,2.858592E1,5.4294543E2,1.6734665E2,8.032956E1,2.0554338E2,4.8249775E1,8.03752E1,1.0209923E1,2.7322351E1,6.080096E1,1.37574415E1,2.4954794E1,3.6311257E0,2.8748126E2,2.5546419E2,6.0909897E1,1.9419657E1,3.1243685E1,1.742997E2,4.6168545E1,2.0812294E0,5.0859238E1,2.9515959E1,3.97293E0,6.236993E0,2.1441595E1,5.8807554E0,1.1158272E1,4.964269E1,9.675786E0,4.0816555E0,2.3778755E1,1.1760387E0,2.5092154E0,1.1219101E0],"tree_param":{"num_deleted":"0","num_feature":"49","num_nodes":"49","size_leaf_vector":"1"}},{"base_weights":[-4.476107E-3,1.5087578E-1,-7.775314E-1,-1.6274722E-2,1.4180738E-1,-8.228027E-1,6.4923E-1,1.3962094E-1,-7.099094E-1,-4.760384E-1,-9.687723E-1,-7.4570104E-2,1.3126679E-1,-6.640642E-2,1.5941805E-1,-4.3353394E-1,-1.1690757E0,-9.8859453E-1,1.4835815E-1,-1.3255664E0,-7.711946E-1,1.3450453E-2,-6.736503E-2,-8.151646E-2,-6.2691863E-3,-1.2234185E-1,1.01738706E-1,-1.1728811E-1,9.954334E-3,9.056314E-2,-4.6658576E-2,-1.3555603E-1,-0E0,-9.664E-2,-2.0211767E-2],"categories":[],"categories_nodes":[],"categories_segments":[],"categories_sizes":[],"default_left":[0,0,0,0,0,0,0,0,0,0,0,0,0,0,0,0,0,0,0,0,0,0,0,0,0,0,0,0,0,0,0,0,0,0,0],"id":6,"left_children":[1,3,5,7,-1,9,11,13,15,17,19,-1,-1,21,-1,23,25,27,29,31,33,-1,-1,-1,-1,-1,-1,-1,-1,-1,-1,-1,-1,-1,-1],"loss_changes":[1.6910756E2,2.4840123E2,1.5771881E1,1.1221754E2,0E0,1.0980713E1,8.196665E0,2.5404475E2,2.350196E1,2.2627007E1,1.0041718E1,0E0,0E0,9.075418E1,0E0,1.693145E1,9.681969E0,7.974617E0,1.5521768E1,2.3308258E0,1.140723E1,0E0,0E0,0E0,0E0,0E0,0E0,0E0,0E0,0E0,0E0,0E0,0E0,0E0,0E0],"parents":[2147483647,0,0,1,1,2,2,3,3,5,5,6,6,7,7,8,8,9,9,10,10,13,13,15,15,16,16,17,17,18,18,19,19,20,20],"right_children":[2,4,6,8,-1,10,12,14,16,18,20,-1,-1,22,-1,24,26,28,30,32,34,-1,-1,-1,-1,-1,-1,-1,-1,-1,-1,-1,-1,-1,-1],"split_conditions":[5E-1,8.135491E-4,4.3156285E0,5E-1,1.4180738E-1,4.0487704E-1,1.4311786E0,3.5214573E-3,1.5995763E-1,1.1857415E-1,5.2118003E-3,-7.4570104E-2,1.3126679E-1,0E0,1.5941805E-1,1.1938618E0,3.3154721E0,9.586869E-1,-4.0659112E-1,3.5708137E0,5.0379616E-1,1.3450453E-2,-6.736503E-2,-8.151646E-2,-6.2691863E-3,-1.2234185E-1,1.01738706E-1,-1.1728811E-1,9.954334E-3,9.056314E-2,-4.6658576E-2,-1.3555603E-1,-0E0,-9.664E-2,-2.0211767E-2],"split_indices":[10,10,35,11,0,40,44,11,1,16,47,0,0,11,0,45,47,44,15,42,5,0,0,0,0,0,0,0,0,0,0,0,0,0,0],"split_type":[0,0,0,0,0,0,0,0,0,0,0,0,0,0,0,0,0,0,0,0,0,0,0,0,0,0,0,0,0,0,0,0,0,0,0],"sum_hessian":[1.4056094E3,1.1709689E3,2.3464046E2,1.0353135E3,1.356554E2,2.2790248E2,6.7379766E0,8.4585956E2,1.8945396E2,6.89801E1,1.5892238E2,2.083186E0,4.6547904E0,7.416903E2,1.04169235E2,1.1961739E2,6.983657E1,3.7650414E1,3.1329689E1,5.442472E1,1.0449766E2,5.57764E2,1.8392636E2,5.822781E1,6.138958E1,6.861734E1,1.2192339E0,3.2209457E1,5.440958E0,1.390109E1,1.7428598E1,5.3267586E1,1.1571325E0,7.7157196E1,2.734046E1],"tree_param":{"num_deleted":"0","num_feature":"49","num_nodes":"35","size_leaf_vector":"1"}},{"base_weights":[-5.0643035E-3,1.4250846E-1,-7.128174E-1,-1.0567835E-2,1.3583164E-1,-1.1745455E0,-5.0769734E-1,-5.855666E-1,1.717147E-1,-1.2100021E0,-2.9033595E-1,-2.622787E-1,-1.2121924E0,-1.0234041E0,-1.873235E-1,2.769306E-1,-1.1080753E0,-1.2315109E0,-4.2993194E-1,5.0500847E-2,-8.8259034E-2,-8.282375E-2,-1.0086054E0,1.2110941E-2,-1.2684772E0,-1.1018159E-1,5.1533007E-3,1.361083E-1,-6.4238414E-2,4.696033E-2,-3.237146E-2,-1.4083828E-1,-4.4489387E-2,-9.4960675E-2,-1.3609062E-1,1.8650463E-2,-8.077379E-2,-4.7287565E-2,3.5124987E-2,-1.31062E-1,-3.4407888E-2,-1.3661443E-1,-4.0169984E-2],"categories":[],"categories_nodes":[],"categories_segments":[],"categories_sizes":[],"default_left":[0,0,0,0,0,0,0,0,0,0,0,0,0,0,0,0,0,0,0,0,0,0,0,0,0,0,0,0,0,0,0,0,0,0,0,0,0,0,0,0,0,0,0],"id":7,"left_children":[1,3,5,7,-1,9,11,13,15,17,19,21,23,25,27,29,31,33,35,-1,-1,37,39,-1,41,-1,-1,-1,-1,-1,-1,-1,-1,-1,-1,-1,-1,-1,-1,-1,-1,-1,-1],"loss_changes":[1.4366135E2,2.1187256E2,2.1713593E1,1.0614077E2,0E0,1.7588425E0,2.8277664E1,4.2195915E1,1.0370972E2,4.6022797E-1,2.4636965E0,1.6505314E1,3.462967E0,9.920555E0,9.1706375E1,8.245142E1,1.0841118E1,8.979492E-1,1.0301347E0,0E0,0E0,1.7398127E1,4.1942215E0,0E0,2.7456665E0,0E0,0E0,0E0,0E0,0E0,0E0,0E0,0E0,0E0,0E0,0E0,0E0,0E0,0E0,0E0,0E0,0E0,0E0],"parents":[2147483647,0,0,1,1,2,2,3,3,5,5,6,6,7,7,8,8,9,9,10,10,11,11,12,12,13,13,14,14,15,15,16,16,17,17,18,18,21,21,22,22,24,24],"right_children":[2,4,6,8,-1,10,12,14,16,18,20,22,24,26,28,30,32,34,36,-1,-1,38,40,-1,42,-1,-1,-1,-1,-1,-1,-1,-1,-1,-1,-1,-1,-1,-1,-1,-1,-1,-1],"split_conditions":[5E-1,8.135491E-4,7.849671E-2,2.5196094E-3,1.3583164E-1,8.9751655E-1,6.5576917E-1,-4.9494278E-1,7.846549E-1,4.2668633E0,-5.41609E-1,2.2498243E0,-6.13054E-1,7.313556E-1,0E0,0E0,1.4339522E0,2.4974453E-1,-3.9425302E-1,5.0500847E-2,-8.8259034E-2,7.5669336E-1,2.3648047E-1,1.2110941E-2,1.19956665E-1,-1.1018159E-1,5.1533007E-3,1.361083E-1,-6.4238414E-2,4.696033E-2,-3.237146E-2,-1.4083828E-1,-4.4489387E-2,-9.4960675E-2,-1.3609062E-1,1.8650463E-2,-8.077379E-2,-4.7287565E-2,3.5124987E-2,-1.31062E-1,-3.4407888E-2,-1.3661443E-1,-4.0169984E-2],"split_indices":[10,10,37,37,0,3,6,10,1,38,2,48,3,32,10,10,42,46,16,0,0,45,3,0,32,0,0,0,0,0,0,0,0,0,0,0,0,0,0,0,0,0,0],"split_type":[0,0,0,0,0,0,0,0,0,0,0,0,0,0,0,0,0,0,0,0,0,0,0,0,0,0,0,0,0,0,0,0,0,0,0,0,0,0,0,0,0,0,0],"sum_hessian":[1.372954E3,1.1366167E3,2.3633728E2,1.0103212E3,1.2629544E2,7.1092766E1,1.6524452E2,2.4279039E2,7.675308E2,6.7888885E1,3.2038822E0,1.2367515E2,4.1569366E1,1.1477893E2,1.2801146E2,7.100195E2,5.751138E1,6.537928E1,2.509608E0,1.3582883E0,1.845594E0,1.0070541E2,2.2969744E1,1.5651422E0,4.0004223E1,1.0703895E2,7.7399836E0,2.8573942E1,9.943752E1,5.3786865E2,1.7215082E2,3.8708572E1,1.8802809E1,2.3434916E1,4.1944363E1,1.0454655E0,1.4641427E0,5.311662E1,4.758879E1,1.502048E1,7.9492645E0,3.5331627E1,4.672596E0],"tree_param":{"num_deleted":"0","num_feature":"49","num_nodes":"43","size_leaf_vector":"1"}},{"base_weights":[2.249862E-2,-5.227635E-1,1.9292699E-1,-1.0446721E0,-2.2831465E-1,2.676917E-1,-1.0340844E0,-1.3496374E0,-8.646035E-1,-9.3567437E-1,7.347435E-2,3.971475E-1,-4.3426177E-1,-5.219439E-1,-1.5500951E0,2.3994312E-2,-1.4367435E0,-5.039661E-1,-1.1668774E0,-1.1189961E-1,-1.1450859E0,2.6422063E-1,-7.810055E-1,2.7450874E-1,1.3050026E-1,-8.6090124E-1,-2.4413338E-2,-1.2057889E0,-3.5039656E-2,1.6311029E-2,-1.624655E0,-1.47549E-1,-4.1770928E-2,5.636701E-3,-8.861631E-2,-1.3006006E-1,-7.450209E-2,5.1298864E-2,-1.168524E-1,3.0754924E-2,-1.3141538E-1,-5.021846E-2,6.308559E-2,1.0680292E-3,-1.1788533E-1,3.8104203E-2,-7.6467305E-2,-1.1186409E-1,-1.0523316E-2,-4.8856962E-2,4.5133036E-2,9.158005E-3,-1.4025603E-1,6.302758E-2,-7.217678E-2,-0E0,-1.7203131E-1],"categories":[],"categories_nodes":[],"categories_segments":[],"categories_sizes":[],"default_left":[0,0,0,0,0,0,0,0,0,0,0,0,0,0,0,0,0,0,0,0,0,0,0,0,0,0,0,0,0,0,0,0,0,0,0,0,0,0,0,0,0,0,0,0,0,0,0,0,0,0,0,0,0,0,0,0,0],"id":8,"left_children":[1,3,5,7,9,11,13,15,17,19,21,23,25,27,29,-1,31,33,35,37,39,41,43,45,-1,47,49,51,53,-1,55,-1,-1,-1,-1,-1,-1,-1,-1,-1,-1,-1,-1,-1,-1,-1,-1,-1,-1,-1,-1,-1,-1,-1,-1,-1,-1],"loss_changes":[1.2528729E2,4.8965332E1,9.4458115E1,4.9477997E0,4.4264446E1,8.8254395E1,1.46126175E1,6.120102E0,7.4789886E0,1.0435528E1,2.3896128E1,9.067522E1,2.6344582E1,1.0250915E1,4.096817E0,0E0,7.3135376E-1,7.9182787E0,1.093174E0,9.753229E0,1.2588081E1,3.402711E1,8.551584E0,8.028755E1,0E0,1.4168198E1,1.7517036E1,3.551775E0,9.323106E0,0E0,4.2854385E0,0E0,0E0,0E0,0E0,0E0,0E0,0E0,0E0,0E0,0E0,0E0,0E0,0E0,0E0,0E0,0E0,0E0,0E0,0E0,0E0,0E0,0E0,0E0,0E0,0E0,0E0],"parents":[2147483647,0,0,1,1,2,2,3,3,4,4,5,5,6,6,7,7,8,8,9,9,10,10,11,11,12,12,13,13,14,14,16,16,17,17,18,18,19,19,20,20,21,21,22,22,23,23,25,25,26,26,27,27,28,28,30,30],"right_children":[2,4,6,8,10,12,14,16,18,20,22,24,26,28,30,-1,32,34,36,38,40,42,44,46,-1,48,50,52,54,-1,56,-1,-1,-1,-1,-1,-1,-1,-1,-1,-1,-1,-1,-1,-1,-1,-1,-1,-1,-1,-1,-1,-1,-1,-1,-1,-1],"split_conditions":[2.5196094E-3,2.8765798E-3,7.856248E-1,-2.589996E-1,4.5714434E-3,5E-1,7.270344E-1,-1.0888529E0,5.920057E-1,-8.336864E-1,5E-1,8.135491E-4,7.4871127E-3,2.0940192E-3,4.2802405E-2,2.3994312E-2,2.64454E0,-9.5359155E-4,3.208488E0,1.5858581E0,2.198339E-1,-4.9494278E-1,2.416366E-1,7.401756E-1,1.3050026E-1,1.0438526E-1,3.8682565E-1,8.274861E-1,1.6777532E-1,1.6311029E-2,2.1270958E-1,-1.47549E-1,-4.1770928E-2,5.636701E-3,-8.861631E-2,-1.3006006E-1,-7.450209E-2,5.1298864E-2,-1.168524E-1,3.0754924E-2,-1.3141538E-1,-5.021846E-2,6.308559E-2,1.0680292E-3,-1.1788533E-1,3.8104203E-2,-7.6467305E-2,-1.1186409E-1,-1.0523316E-2,-4.8856962E-2,4.5133036E-2,9.158005E-3,-1.4025603E-1,6.302758E-2,-7.217678E-2,-0E0,-1.7203131E-1],"split_indices":[37,47,16,0,35,10,46,3,36,1,10,10,34,46,32,0,40,0,48,45,47,10,46,1,0,32,5,45,5,0,37,0,0,0,0,0,0,0,0,0,0,0,0,0,0,0,0,0,0,0,0,0,0,0,0,0,0],"split_type":[0,0,0,0,0,0,0,0,0,0,0,0,0,0,0,0,0,0,0,0,0,0,0,0,0,0,0,0,0,0,0,0,0,0,0,0,0,0,0,0,0,0,0,0,0,0,0,0,0,0,0,0,0,0,0,0,0],"sum_hessian":[1.3464868E3,3.2000876E2,1.026478E3,1.1438123E2,2.0562753E2,9.6833826E2,5.813982E1,3.984649E1,7.4534744E1,6.0964493E1,1.4466302E2,8.180486E2,1.5028963E2,3.0286129E1,2.785369E1,1.91928E0,3.7927208E1,3.5353363E1,3.9181377E1,1.2764379E1,4.8200115E1,1.18923454E2,2.5739573E1,7.219373E2,9.611131E1,7.2977646E1,7.731198E1,1.1896281E1,1.8389849E1,1.0561886E0,2.67975E1,3.601187E1,1.9153361E0,1.4575428E1,2.0777937E1,2.79891E1,1.119228E1,8.2846775E0,4.479701E0,4.8779626E0,4.332215E1,3.8274E1,8.064946E1,8.850191E0,1.6889381E1,6.5547034E2,6.646696E1,5.3960415E1,1.901723E1,3.9225304E1,3.8086678E1,1.5701606E0,1.032612E1,9.308338E0,9.081511E0,1.5573738E0,2.5240128E1],"tree_param":{"num_deleted":"0","num_feature":"49","num_nodes":"57","size_leaf_vector":"1"}},{"base_weights":[-2.5297317E-3,1.4431155E-1,-6.378232E-1,-4.9503054E-2,1.4354628E-1,-9.456353E-1,-3.7653062E-1,-5.929068E-1,1.08133845E-1,-1.1785222E0,-5.820994E-1,-1.8807204E-1,-1.4220177E-1,-9.804525E-1,-1.5942572E-1,1.975194E-1,-1.0847715E0,-1.2779444E0,-6.969125E-1,-1.3575675E-1,-2.473259E-1,8.097144E-2,-9.2310154E-1,-1.0429142E-1,1.9253746E-2,1.4743498E-1,-7.264106E-2,3.90525E-2,-3.69053E-2,-1.4815478E-1,-6.443044E-2,-1.305629E-1,-4.1278493E-2,6.406719E-2,-1.08946316E-1,2.6157636E-2,-8.1373096E-2,-5.2676518E-2,5.5464286E-2,-1.204265E-1,1.0007463E-2],"categories":[],"categories_nodes":[],"categories_segments":[],"categories_sizes":[],"default_left":[0,0,0,0,0,0,0,0,0,0,0,0,0,0,0,0,0,0,0,0,0,0,0,0,0,0,0,0,0,0,0,0,0,0,0,0,0,0,0,0,0],"id":9,"left_children":[1,3,5,7,-1,9,11,13,15,17,19,21,-1,23,25,27,29,31,33,-1,35,37,39,-1,-1,-1,-1,-1,-1,-1,-1,-1,-1,-1,-1,-1,-1,-1,-1,-1,-1],"loss_changes":[1.2614136E2,2.749209E2,1.9932014E1,8.195208E1,0E0,8.936104E0,2.6990408E1,3.5869858E1,7.916562E1,2.234871E0,1.1791897E1,2.3719452E1,0E0,8.584503E0,9.627986E1,7.565554E1,7.8766823E0,6.3412476E-1,8.223261E0,0E0,1.0176192E1,2.5637611E1,9.466616E0,0E0,0E0,0E0,0E0,0E0,0E0,0E0,0E0,0E0,0E0,0E0,0E0,0E0,0E0,0E0,0E0,0E0,0E0],"parents":[2147483647,0,0,1,1,2,2,3,3,5,5,6,6,7,7,8,8,9,9,10,10,11,11,13,13,14,14,15,15,16,16,17,17,18,18,20,20,21,21,22,22],"right_children":[2,4,6,8,-1,10,12,14,16,18,20,22,-1,24,26,28,30,32,34,-1,36,38,40,-1,-1,-1,-1,-1,-1,-1,-1,-1,-1,-1,-1,-1,-1,-1,-1,-1,-1],"split_conditions":[5E-1,3.5214573E-3,8.731656E-1,2.5196094E-3,1.4354628E-1,1.9715407E0,2.1866117E0,-4.938295E-1,8.0614406E-1,6.7068255E-1,-2.645832E-2,3.7751037E-1,-1.4220177E-1,7.4452007E-1,0E0,0E0,-4.9494278E-1,8.4826845E-1,-3.7987503E-1,-1.3575675E-1,-2.9233545E-2,6.6016865E-1,1.3817945E0,-1.0429142E-1,1.9253746E-2,1.4743498E-1,-7.264106E-2,3.90525E-2,-3.69053E-2,-1.4815478E-1,-6.443044E-2,-1.305629E-1,-4.1278493E-2,6.406719E-2,-1.08946316E-1,2.6157636E-2,-8.1373096E-2,-5.2676518E-2,5.5464286E-2,-1.204265E-1,1.0007463E-2],"split_indices":[11,11,45,37,0,35,37,11,1,0,3,0,0,32,11,11,10,16,6,0,10,44,41,0,0,0,0,0,0,0,0,0,0,0,0,0,0,0,0,0,0],"split_type":[0,0,0,0,0,0,0,0,0,0,0,0,0,0,0,0,0,0,0,0,0,0,0,0,0,0,0,0,0,0,0,0,0,0,0,0,0,0,0,0,0],"sum_hessian":[1.3496656E3,1.0967737E3,2.5289206E2,9.5439386E2,1.4237978E2,1.1473192E2,1.3816014E2,2.14128E2,7.4026587E2,6.83981E1,4.6333817E1,1.1813988E2,2.0020254E1,1.1226608E2,1.0186192E2,6.895179E2,5.074799E1,5.515162E1,1.3246482E1,1.2959827E1,3.337399E1,8.703586E1,3.1104021E1,1.0677638E2,5.489697E0,2.578509E1,7.607683E1,5.146777E2,1.748402E2,2.5335217E1,2.5412775E1,5.2836193E1,2.3154285E0,2.8042855E0,1.0442196E1,1.7769827E1,1.5604161E1,3.798132E1,4.905454E1,2.4337069E1,6.766952E0],"tree_param":{"num_deleted":"0","num_feature":"49","num_nodes":"41","size_leaf_vector":"1"}},{"base_weights":[1.9728407E-2,1.3886385E-1,-5.813129E-1,1.2681935E-2,1.2689675E-1,-9.0834385E-1,-3.960093E-1,1.9370927E-1,-4.5261648E-1,-4.4094583E-1,-1.1758947E0,2.8260428E-1,-6.461328E-1,-1.07682735E-1,1.3498195E-1,-3.356006E-1,-1.4280071E0,4.35264E-1,-1.2497708E0,-1.2289156E0,3.837224E-2,8.1693864E-1,-5.587766E-1,-7.423979E-1,6.3582945E-1,3.455464E-2,-4.6280667E-2,-8.8661216E-2,-8.534086E-3,-1.4641313E-1,-1.6919864E-2,-2.8284524E-2,1.6038214E-1,-1.3078944E-1,-1.4733145E-2,-1.2655169E-1,1.1354396E-2,1.0452073E-1,-9.8188035E-2,-1.1461323E-1,6.026419E-2,-3.162496E-2,-9.35827E-2,1.034079E-1,-8.054557E-2],"categories":[],"categories_nodes":[],"categories_segments":[],"categories_sizes":[],"default_left":[0,0,0,0,0,0,0,0,0,0,0,0,0,0,0,0,0,0,0,0,0,0,0,0,0,0,0,0,0,0,0,0,0,0,0,0,0,0,0,0,0,0,0,0,0],"id":10,"left_children":[1,3,5,7,-1,9,11,13,15,17,19,21,23,25,-1,27,29,31,33,35,-1,37,39,41,43,-1,-1,-1,-1,-1,-1,-1,-1,-1,-1,-1,-1,-1,-1,-1,-1,-1,-1,-1,-1],"loss_changes":[9.350348E1,1.5533432E2,1.2598541E1,8.276895E1,0E0,8.967667E0,2.3954096E1,2.4687544E2,3.0750381E1,2.1760185E1,4.5524673E0,1.7677654E1,1.3142757E1,9.066635E1,0E0,3.389936E1,9.111252E-1,1.3170467E1,6.7580414E-1,2.5702057E0,0E0,1.0834354E1,1.1234531E1,7.488392E0,5.236177E0,0E0,0E0,0E0,0E0,0E0,0E0,0E0,0E0,0E0,0E0,0E0,0E0,0E0,0E0,0E0,0E0,0E0,0E0,0E0,0E0],"parents":[2147483647,0,0,1,1,2,2,3,3,5,5,6,6,7,7,8,8,9,9,10,10,11,11,12,12,13,13,15,15,16,16,17,17,18,18,19,19,21,21,22,22,23,23,24,24],"right_children":[2,4,6,8,-1,10,12,14,16,18,20,22,24,26,-1,28,30,32,34,36,-1,38,40,42,44,-1,-1,-1,-1,-1,-1,-1,-1,-1,-1,-1,-1,-1,-1,-1,-1,-1,-1,-1,-1],"split_conditions":[5E-1,8.135491E-4,2.8765798E-3,0E0,1.2689675E-1,4.32836E-1,1.0795509E-1,-4.9494278E-1,3.2285209E0,-4.1304705E-1,3.8948753E0,2.045241E-1,4.3156285E0,-1.0240713E0,1.3498195E-1,1.0663467E-1,3.236189E0,4.1454453E0,2.3865285E0,9.6785855E-1,3.837224E-2,5.187642E-1,4.8375258E-1,-4.8725477E-1,3.9459696E-1,3.455464E-2,-4.6280667E-2,-8.8661216E-2,-8.534086E-3,-1.4641313E-1,-1.6919864E-2,-2.8284524E-2,1.6038214E-1,-1.3078944E-1,-1.4733145E-2,-1.2655169E-1,1.1354396E-2,1.0452073E-1,-9.8188035E-2,-1.1461323E-1,6.026419E-2,-3.162496E-2,-9.35827E-2,1.034079E-1,-8.054557E-2],"split_indices":[10,10,47,10,0,40,46,10,35,15,36,14,35,3,0,35,33,43,41,7,0,0,35,16,14,0,0,0,0,0,0,0,0,0,0,0,0,0,0,0,0,0,0,0,0],"split_type":[0,0,0,0,0,0,0,0,0,0,0,0,0,0,0,0,0,0,0,0,0,0,0,0,0,0,0,0,0,0,0,0,0,0,0,0,0,0,0,0,0,0,0,0,0],"sum_hessian":[1.3043081E3,1.0893232E3,2.1498492E2,9.809003E2,1.0842288E2,7.6150314E1,1.3883461E2,7.06738E2,2.7416232E2,2.8821846E1,4.732847E1,3.72477E1,1.0158691E2,5.612447E2,1.4549327E2,2.4608638E2,2.8075956E1,1.3996974E1,1.4824872E1,4.6039467E1,1.2890021E0,2.2870974E1,1.4376727E1,9.4955414E1,6.631494E0,2.4645296E2,3.1479175E2,7.594078E1,1.701456E2,2.705695E1,1.0190063E0,9.0858555E0,4.911119E0,1.3819213E1,1.0056587E0,4.4945854E1,1.0936136E0,2.0716595E1,2.1543784E0,9.613982E0,4.762745E0,3.0628643E1,6.432677E1,5.4715357E0,1.1599581E0],"tree_param":{"num_deleted":"0","num_feature":"49","num_nodes":"45","size_leaf_vector":"1"}},{"base_weights":[-7.6212743E-3,1.2447596E-1,-5.965341E-1,-4.800457E-2,1.3945396E-1,-3.4270358E-1,-9.613717E-1,-5.3326035E-1,8.991409E-2,-6.33756E-1,3.301654E-2,-1.0190108E0,5.378806E-1,-9.698954E-1,-2.6501516E-1,1.66656E-1,-1.1875463E0,-9.64633E-1,-2.2234192E-1,3.5573915E-1,-9.120247E-1,-6.3967246E-1,-1.1851062E0,1.3284485E-1,-7.1932964E-2,6.8201296E-2,-1.0418737E-1,-5.635937E-2,5.6765597E-2,2.5659537E-2,-8.6871415E-2,-1.3331039E-1,4.7160204E-2,6.305051E-2,-1.0350523E-1,1.5328892E-1,-3.6822923E-2,6.0229428E-2,-9.353175E-2,-1.3351083E-1,-0E0,-7.671757E-2,8.349766E-2,-1.2300187E-1,1.37818875E-2],"categories":[],"categories_nodes":[],"categories_segments":[],"categories_sizes":[],"default_left":[0,0,0,0,0,0,0,0,0,0,0,0,0,0,0,0,0,0,0,0,0,0,0,0,0,0,0,0,0,0,0,0,0,0,0,0,0,0,0,0,0,0,0,0,0],"id":11,"left_children":[1,3,5,7,-1,9,11,13,15,17,19,21,23,25,27,29,31,33,35,37,39,41,43,-1,-1,-1,-1,-1,-1,-1,-1,-1,-1,-1,-1,-1,-1,-1,-1,-1,-1,-1,-1,-1,-1],"loss_changes":[9.926219E1,2.2837755E2,2.1191315E1,6.152775E1,0E0,1.5345642E1,8.823662E0,2.3450375E1,7.023953E1,1.0401373E1,1.9096338E1,4.86187E0,5.1065063E0,9.891472E0,3.2031555E1,6.3102097E1,1.0518879E1,5.553726E0,9.816068E0,1.5432357E1,6.2116413E0,6.3497105E0,4.003685E0,0E0,0E0,0E0,0E0,0E0,0E0,0E0,0E0,0E0,0E0,0E0,0E0,0E0,0E0,0E0,0E0,0E0,0E0,0E0,0E0,0E0,0E0],"parents":[2147483647,0,0,1,1,2,2,3,3,5,5,6,6,7,7,8,8,9,9,10,10,11,11,12,12,13,13,14,14,15,15,16,16,17,17,18,18,19,19,20,20,21,21,22,22],"right_children":[2,4,6,8,-1,10,12,14,16,18,20,22,24,26,28,30,32,34,36,38,40,42,44,-1,-1,-1,-1,-1,-1,-1,-1,-1,-1,-1,-1,-1,-1,-1,-1,-1,-1,-1,-1,-1,-1],"split_conditions":[5E-1,3.5214573E-3,6.0085934E-2,2.5196094E-3,1.3945396E-1,6.898594E-1,4.1417766E0,5.2118003E-3,7.856248E-1,1.5729112E-3,2.1356695E0,-1.9125919E-1,-8.110383E-2,-1.459569E0,3.1922874E-3,7.846549E-1,3.5678706E0,-6.050612E-1,5.3747697E-3,3.6337357E0,-1.1758474E-1,8.5937446E-1,3.053749E0,1.3284485E-1,-7.1932964E-2,6.8201296E-2,-1.0418737E-1,-5.635937E-2,5.6765597E-2,2.5659537E-2,-8.6871415E-2,-1.3331039E-1,4.7160204E-2,6.305051E-2,-1.0350523E-1,1.5328892E-1,-3.6822923E-2,6.0229428E-2,-9.353175E-2,-1.3351083E-1,-0E0,-7.671757E-2,8.349766E-2,-1.2300187E-1,1.37818875E-2],"split_indices":[11,11,1,37,0,44,35,47,16,33,37,4,0,7,8,1,37,5,33,43,1,16,44,0,0,0,0,0,0,0,0,0,0,0,0,0,0,0,0,0,0,0,0,0,0],"split_type":[0,0,0,0,0,0,0,0,0,0,0,0,0,0,0,0,0,0,0,0,0,0,0,0,0,0,0,0,0,0,0,0,0,0,0,0,0,0,0,0,0,0,0,0,0],"sum_hessian":[1.2734047E3,1.0406079E3,2.3279677E2,9.169635E2,1.23644424E2,1.3858896E2,9.4207825E1,2.0246504E2,7.144985E2,7.785657E1,6.0732384E1,9.109276E1,3.1150627E0,7.5911644E1,1.265534E2,6.7490234E2,3.959613E1,4.227192E1,3.5584652E1,4.5816032E1,1.4916351E1,2.9400179E1,6.169258E1,1.9265028E0,1.1885599E0,2.7576966E0,7.315395E1,9.347755E1,3.3075855E1,6.2174225E2,5.316006E1,3.66386E1,2.9575322E0,1.3909292E0,4.088099E1,1.9485086E0,3.3636143E1,3.8982437E1,6.833594E0,9.911941E0,5.0044107E0,2.7564432E1,1.8357456E0,5.9807953E1,1.884629E0],"tree_param":{"num_deleted":"0","num_feature":"49","num_nodes":"45","size_leaf_vector":"1"}},{"base_weights":[-7.3970375E-3,1.16799146E-1,-5.659322E-1,-4.4930823E-2,1.3402778E-1,-3.3082265E-1,-9.109531E-1,1.1318592E-1,-4.6928757E-1,-7.23442E-1,3.8327584E-3,-1.0049144E0,8.488869E-1,-2.380979E-1,1.4594886E-1,-9.839726E-1,-2.9380634E-1,-1.0099303E0,3.340774E-2,3.2834944E-1,-7.417326E-1,-1.0587188E0,7.150316E-1,-3.261166E-2,1.3203534E-1,1.9754985E-2,-6.352164E-2,-1.0582917E-1,1.1054136E-1,-1.0402021E-2,-7.865583E-2,-6.4616375E-2,-1.2789188E-1,-9.81464E-2,3.844763E-2,-3.132583E-2,6.831275E-2,3.558032E-4,-1.4082856E-1,-7.2324775E-2,-1.2433864E-1,9.7793624E-2,3.3201666E-3],"categories":[],"categories_nodes":[],"categories_segments":[],"categories_sizes":[],"default_left":[0,0,0,0,0,0,0,0,0,0,0,0,0,0,0,0,0,0,0,0,0,0,0,0,0,0,0,0,0,0,0,0,0,0,0,0,0,0,0,0,0,0,0],"id":12,"left_children":[1,3,5,7,-1,9,11,13,15,17,19,21,23,25,-1,27,29,31,33,35,37,39,41,-1,-1,-1,-1,-1,-1,-1,-1,-1,-1,-1,-1,-1,-1,-1,-1,-1,-1,-1,-1],"loss_changes":[8.777644E1,2.0490196E2,1.824871E1,6.1461018E1,0E0,1.8293102E1,1.6173325E1,3.159208E2,2.2041428E1,1.3996601E1,1.852034E1,8.969749E0,3.3992586E0,9.182394E1,0E0,1.0894039E1,1.7317453E1,3.5325203E0,6.8843565E0,1.2437555E1,1.1657635E1,4.241394E0,4.4384933E-1,0E0,0E0,0E0,0E0,0E0,0E0,0E0,0E0,0E0,0E0,0E0,0E0,0E0,0E0,0E0,0E0,0E0,0E0,0E0,0E0],"parents":[2147483647,0,0,1,1,2,2,3,3,5,5,6,6,7,7,8,8,9,9,10,10,11,11,12,12,13,13,15,15,16,16,17,17,18,18,19,19,20,20,21,21,22,22],"right_children":[2,4,6,8,-1,10,12,14,16,18,20,22,24,26,-1,28,30,32,34,36,38,40,42,-1,-1,-1,-1,-1,-1,-1,-1,-1,-1,-1,-1,-1,-1,-1,-1,-1,-1,-1,-1],"split_conditions":[5E-1,3.5214573E-3,6.0085934E-2,0E0,1.3402778E-1,1.2177075E0,1.3931714E-1,-4.938295E-1,-1.856541E-1,2.436699E0,1.2911704E0,4.199814E0,2.032075E-1,-1.0187515E0,1.4594886E-1,4.422524E0,2.9569703E-1,-1.7605458E-1,-4.010236E-2,1.314086E0,-7.03563E-2,-1.09153405E-1,5.5889904E-1,-3.261166E-2,1.3203534E-1,1.9754985E-2,-6.352164E-2,-1.0582917E-1,1.1054136E-1,-1.0402021E-2,-7.865583E-2,-6.4616375E-2,-1.2789188E-1,-9.81464E-2,3.844763E-2,-3.132583E-2,6.831275E-2,3.558032E-4,-1.4082856E-1,-7.2324775E-2,-1.2433864E-1,9.7793624E-2,3.3201666E-3],"split_indices":[11,11,1,11,0,45,32,11,4,42,43,35,3,3,0,38,15,15,3,36,3,6,7,0,0,0,0,0,0,0,0,0,0,0,0,0,0,0,0,0,0,0,0],"split_type":[0,0,0,0,0,0,0,0,0,0,0,0,0,0,0,0,0,0,0,0,0,0,0,0,0,0,0,0,0,0,0,0,0,0,0,0,0,0,0,0,0,0,0],"sum_hessian":[1.2627744E3,1.0335627E3,2.292117E2,9.136677E2,1.1989494E2,1.3765639E2,9.155532E1,6.660084E2,2.4765933E2,6.2945488E1,7.471089E1,8.737594E1,4.1793785E0,5.287843E2,1.372241E2,6.165337E1,1.8600595E2,4.551468E1,1.743081E1,5.253716E1,2.2173735E1,8.515467E1,2.2212682E0,1.2243084E0,2.9550703E0,2.5227917E2,2.7650513E2,6.0058453E1,1.5949157E0,1.353061E2,5.069985E1,2.0952942E1,2.4561739E1,3.945278E0,1.3485533E1,1.8647947E1,3.3889214E1,1.0867326E1,1.1306409E1,3.2170708E1,5.2983967E1,1.1838468E0,1.0374215E0],"tree_param":{"num_deleted":"0","num_feature":"49","num_nodes":"43","size_leaf_vector":"1"}},{"base_weights":[-1.5757956E-2,-4.2388445E-1,1.06425926E-1,-8.691378E-1,-1.8175316E-1,1.7072846E-1,-9.315526E-1,9.512099E-2,-9.1512233E-1,-7.5539047E-1,7.211153E-2,2.158592E-1,-9.0255165E-1,-4.5802423E-1,-1.3331871E0,-1.1821573E0,-6.4917606E-1,-8.6482316E-1,5.0883645E-1,2.322314E-1,-6.685177E-1,2.6885405E-1,-7.270199E-1,-1.2873005E0,-4.3450108E-1,-1.0220115E0,1.8412027E-1,-1.4401244E0,4.6385E-3,-1.2352399E-1,6.4503524E-4,-4.2449504E-2,-1.0433209E-1,1.3113865E-3,-1.02459095E-1,1.4401965E-1,-5.8792945E-2,4.135301E-2,-6.647304E-2,-8.9736134E-2,2.3125127E-2,2.8932046E-3,4.6289075E-2,-1.5459977E-1,-2.2826182E-2,-1.4122896E-1,4.4602272E-4,-1.04772486E-1,2.5371501E-2,7.7881925E-2,-1.2508532E-1,6.055149E-2,-1.0702666E-1,-1.37996E-2,-1.5065683E-1],"categories":[],"categories_nodes":[],"categories_segments":[],"categories_sizes":[],"default_left":[0,0,0,0,0,0,0,0,0,0,0,0,0,0,0,0,0,0,0,0,0,0,0,0,0,0,0,0,0,0,0,0,0,0,0,0,0,0,0,0,0,0,0,0,0,0,0,0,0,0,0,0,0,0,0],"id":13,"left_children":[1,3,5,7,9,11,13,-1,15,17,19,21,23,25,27,29,31,33,35,37,39,41,43,45,47,49,51,53,-1,-1,-1,-1,-1,-1,-1,-1,-1,-1,-1,-1,-1,-1,-1,-1,-1,-1,-1,-1,-1,-1,-1,-1,-1,-1,-1],"loss_changes":[6.1549206E1,3.0399471E1,6.3445374E1,9.218773E0,2.7156633E1,4.347238E1,9.754868E0,0E0,6.0005493E0,8.383472E0,1.5466527E1,4.3105278E1,5.7900352E0,1.0080107E1,4.537834E0,3.12368E0,3.966179E0,7.555504E0,6.1521034E0,1.7701284E1,5.0436335E0,3.7867085E1,1.8225178E1,3.2549744E0,7.9270964E0,7.060441E0,7.6995697E0,1.9937401E0,0E0,0E0,0E0,0E0,0E0,0E0,0E0,0E0,0E0,0E0,0E0,0E0,0E0,0E0,0E0,0E0,0E0,0E0,0E0,0E0,0E0,0E0,0E0,0E0,0E0,0E0,0E0],"parents":[2147483647,0,0,1,1,2,2,3,3,4,4,5,5,6,6,8,8,9,9,10,10,11,11,12,12,13,13,14,14,15,15,16,16,17,17,18,18,19,19,20,20,21,21,22,22,23,23,24,24,25,25,26,26,27,27],"right_children":[2,4,6,8,10,12,14,-1,16,18,20,22,24,26,28,30,32,34,36,38,40,42,44,46,48,50,52,54,-1,-1,-1,-1,-1,-1,-1,-1,-1,-1,-1,-1,-1,-1,-1,-1,-1,-1,-1,-1,-1,-1,-1,-1,-1,-1,-1],"split_conditions":[2.5196094E-3,2.8765798E-3,7.856248E-1,-1.481228E0,4.5714434E-3,9.026689E-1,6.0592943E-1,9.512099E-2,1.8153858E0,2.922837E0,3.655866E0,3.00259E0,3.9572364E-1,2.4893537E-1,3.8044753E0,2.4213552E0,4.112262E0,-7.957921E-1,-1.8416648E0,5E-1,3.1922874E-3,2.4034083E-3,1.0663467E-1,3.180225E0,5.952379E-1,-4.4127688E-1,1.6898127E-1,2.1270958E-1,4.6385E-3,-1.2352399E-1,6.4503524E-4,-4.2449504E-2,-1.0433209E-1,1.3113865E-3,-1.02459095E-1,1.4401965E-1,-5.8792945E-2,4.135301E-2,-6.647304E-2,-8.9736134E-2,2.3125127E-2,2.8932046E-3,4.6289075E-2,-1.5459977E-1,-2.2826182E-2,-1.4122896E-1,4.4602272E-4,-1.04772486E-1,2.5371501E-2,7.7881925E-2,-1.2508532E-1,6.055149E-2,-1.0702666E-1,-1.37996E-2,-1.5065683E-1],"split_indices":[37,47,16,7,35,6,46,0,39,47,33,46,5,47,40,42,39,15,5,10,8,34,35,42,46,5,34,37,0,0,0,0,0,0,0,0,0,0,0,0,0,0,0,0,0,0,0,0,0,0,0,0,0,0,0],"split_type":[0,0,0,0,0,0,0,0,0,0,0,0,0,0,0,0,0,0,0,0,0,0,0,0,0,0,0,0,0,0,0,0,0,0,0,0,0,0,0,0,0,0,0,0,0,0,0,0,0,0,0,0,0,0,0],"sum_hessian":[1.2317389E3,2.8341315E2,9.4832574E2,9.877466E1,1.8463849E2,8.9388184E2,5.4443916E1,1.8950961E0,9.687956E1,5.615898E1,1.284795E2,8.586675E2,3.5214363E1,2.6082249E1,2.8361668E1,4.643419E1,5.0445374E1,5.2048626E1,4.1103525E0,1.0631605E2,2.216347E1,8.137512E2,4.4916252E1,1.8249138E1,1.6965225E1,1.3654151E1,1.2428098E1,2.634791E1,2.0137587E0,4.4492092E1,1.9420968E0,3.3614338E1,1.6831034E1,8.058508E0,4.399012E1,2.102761E0,2.0075917E0,8.8981155E1,1.733489E1,1.7760221E1,4.4032474E0,3.645982E2,4.4915298E2,1.613002E1,2.8786232E1,1.6624664E1,1.6244737E0,8.772001E0,8.193223E0,1.2192415E0,1.243491E1,9.749788E0,2.6783094E0,1.501637E0,2.4846273E1],"tree_param":{"num_deleted":"0","num_feature":"49","num_nodes":"55","size_leaf_vector":"1"}},{"base_weights":[-3.5504467E-4,1.091648E-1,-5.080858E-1,-3.774493E-2,1.2977688E-1,-8.411777E-1,-2.8050557E-1,1.1092542E-1,-4.281228E-1,-9.119073E-1,1.8145877E-1,-1.02101564E-1,-1.275182E-1,-2.1194294E-1,1.3971813E-1,-1.0102041E0,-3.0197728E-1,-9.8111576E-1,1.2720972E-1,-9.8078035E-2,8.8791513E-1,-5.626496E-1,2.990037E-1,2.114298E-2,-5.99212E-2,5.687631E-2,-1.21771075E-1,-1.5570307E-2,-8.299563E-2,-1.1408078E-1,-6.0522407E-2,-8.134291E-2,6.693658E-2,1.370919E-1,-2.9902209E-2,-1.2901329E-1,-2.5856316E-2,4.8683356E-2,-1.1958029E-1],"categories":[],"categories_nodes":[],"categories_segments":[],"categories_sizes":[],"default_left":[0,0,0,0,0,0,0,0,0,0,0,0,0,0,0,0,0,0,0,0,0,0,0,0,0,0,0,0,0,0,0,0,0,0,0,0,0,0,0],"id":14,"left_children":[1,3,5,7,-1,9,11,13,15,17,19,21,-1,23,-1,25,27,29,31,-1,33,35,37,-1,-1,-1,-1,-1,-1,-1,-1,-1,-1,-1,-1,-1,-1,-1,-1],"loss_changes":[6.81121E1,1.7598131E2,1.6129585E1,5.2136265E1,0E0,6.571289E0,2.2946018E1,2.704293E2,1.7756908E1,6.1178207E0,6.1216373E0,2.0901527E1,0E0,8.551104E1,0E0,1.503117E1,1.5620382E1,3.7703476E0,3.551447E0,0E0,3.1329613E0,1.1157242E1,1.7483889E1,0E0,0E0,0E0,0E0,0E0,0E0,0E0,0E0,0E0,0E0,0E0,0E0,0E0,0E0,0E0,0E0],"parents":[2147483647,0,0,1,1,2,2,3,3,5,5,6,6,7,7,8,8,9,9,10,10,11,11,13,13,15,15,16,16,17,17,18,18,20,20,21,21,22,22],"right_children":[2,4,6,8,-1,10,12,14,16,18,20,22,-1,24,-1,26,28,30,32,-1,34,36,38,-1,-1,-1,-1,-1,-1,-1,-1,-1,-1,-1,-1,-1,-1,-1,-1],"split_conditions":[5E-1,3.5214573E-3,7.126914E-1,0E0,1.2977688E-1,4.199814E0,2.1866117E0,-4.938295E-1,-2.9537264E-1,3.6581554E0,1.7168036E0,5.871412E-2,-1.275182E-1,-2.737738E0,1.3971813E-1,-8.463983E-1,5.687944E-1,1.0697255E0,7.008945E-3,-9.8078035E-2,4.6306008E-1,-1.5821695E-1,3.4648993E0,2.114298E-2,-5.99212E-2,5.687631E-2,-1.21771075E-1,-1.5570307E-2,-8.299563E-2,-1.1408078E-1,-6.0522407E-2,-8.134291E-2,6.693658E-2,1.370919E-1,-2.9902209E-2,-1.2901329E-1,-2.5856316E-2,4.8683356E-2,-1.1958029E-1],"split_indices":[11,11,45,11,0,35,37,11,4,47,37,47,0,14,0,1,5,34,14,0,0,0,43,0,0,0,0,0,0,0,0,0,0,0,0,0,0,0,0],"split_type":[0,0,0,0,0,0,0,0,0,0,0,0,0,0,0,0,0,0,0,0,0,0,0,0,0,0,0,0,0,0,0,0,0,0,0,0,0,0,0],"sum_hessian":[1.2221777E3,1.0058083E3,2.163694E2,8.959538E2,1.09854485E2,8.65529E1,1.298165E2,6.491812E2,2.4677258E2,8.1146545E1,5.4063563E0,1.11093994E2,1.8722506E1,5.195295E2,1.2965175E2,4.2564316E1,2.0420827E2,7.622198E1,4.92457E0,1.8435487E0,3.5628078E0,5.1643555E1,5.945044E1,2.4828911E2,2.712404E2,4.685836E0,3.787848E1,1.6106909E2,4.3139164E1,5.1880394E1,2.4341581E1,1.5501893E0,3.3743806E0,2.482032E0,1.0807757E0,1.4170695E1,3.747286E1,5.347256E1,5.9778776E0],"tree_param":{"num_deleted":"0","num_feature":"49","num_nodes":"39","size_leaf_vector":"1"}},{"base_weights":[9.583468E-3,1.1330814E-1,-4.5122835E-1,-1.9255053E-2,1.2640089E-1,-5.872425E-1,6.9802545E-2,1.604087E-2,-1.729099E-1,-6.582385E-1,4.9830744E-1,4.892778E-1,-9.587784E-1,-4.5106837E-1,1.416396E-1,-8.2384634E-1,-1.9598408E-1,-9.215736E-2,9.78413E-1,6.924521E-1,-1.0168459E-1,-1.1431663E0,7.047605E-3,-7.78824E-2,-6.485194E-3,2.0911416E-2,-8.7553784E-2,-5.714306E-2,-1.15509965E-1,4.9295966E-2,-4.718334E-2,-6.7203835E-2,1.3058148E-1,-2.0696993E-3,1.0789486E-1,-1.4318732E-2,-1.2169122E-1],"categories":[],"categories_nodes":[],"categories_segments":[],"categories_sizes":[],"default_left":[0,0,0,0,0,0,0,0,0,0,0,0,0,0,0,0,0,0,0,0,0,0,0,0,0,0,0,0,0,0,0,0,0,0,0,0,0],"id":15,"left_children":[1,3,5,7,-1,9,11,13,-1,15,17,19,21,23,25,27,29,-1,31,33,-1,35,-1,-1,-1,-1,-1,-1,-1,-1,-1,-1,-1,-1,-1,-1,-1],"loss_changes":[5.693604E1,1.4857217E2,1.5599945E1,5.2909348E1,0E0,1.373719E1,2.0286406E1,5.0292427E1,0E0,1.2262917E1,8.508505E0,1.0902556E1,2.7699213E0,2.285347E1,4.651735E1,9.200813E0,8.712409E0,0E0,5.7341976E0,8.42818E0,0E0,5.509949E-1,0E0,0E0,0E0,0E0,0E0,0E0,0E0,0E0,0E0,0E0,0E0,0E0,0E0,0E0,0E0],"parents":[2147483647,0,0,1,1,2,2,3,3,5,5,6,6,7,7,9,9,10,10,11,11,12,12,13,13,14,14,15,15,16,16,18,18,19,19,21,21],"right_children":[2,4,6,8,-1,10,12,14,-1,16,18,20,22,24,26,28,30,-1,32,34,-1,36,-1,-1,-1,-1,-1,-1,-1,-1,-1,-1,-1,-1,-1,-1,-1],"split_conditions":[5E-1,3.5214573E-3,3.302213E0,3.7203841E0,1.2640089E-1,1.3506174E-1,4.4767604E0,2.5196094E-3,-1.729099E-1,2.3620095E0,-6.256632E-2,1.0438526E-1,5.850279E-1,-4.938295E-1,8.1885594E-1,6.0887724E-1,-5.079033E-1,-9.215736E-2,5.276957E-1,-1.9098143E-1,-1.0168459E-1,-6.340986E-1,7.047605E-3,-7.78824E-2,-6.485194E-3,2.0911416E-2,-8.7553784E-2,-5.714306E-2,-1.15509965E-1,4.9295966E-2,-4.718334E-2,-6.7203835E-2,1.3058148E-1,-2.0696993E-3,1.0789486E-1,-1.4318732E-2,-1.2169122E-1],"split_indices":[11,11,39,47,0,32,39,37,0,42,14,32,3,11,1,42,2,0,36,2,0,14,0,0,0,0,0,0,0,0,0,0,0,0,0,0,0],"split_type":[0,0,0,0,0,0,0,0,0,0,0,0,0,0,0,0,0,0,0,0,0,0,0,0,0,0,0,0,0,0,0,0,0,0,0,0,0],"sum_hessian":[1.1898286E3,9.7200903E2,2.1781953E2,8.724028E2,9.960631E1,1.7278038E2,4.503915E1,8.5567145E2,1.6731302E1,1.6262999E2,1.0150393E1,3.2433628E1,1.2605523E1,1.8060458E2,6.750669E2,1.18998764E2,4.363123E1,2.2799065E0,7.870486E0,2.911296E1,3.3206658E0,1.067891E1,1.9266129E0,9.7006386E1,8.35982E1,6.339092E2,4.1157696E1,6.9254E1,4.9744762E1,1.2146164E1,3.1485065E1,1.0780249E0,6.792461E0,1.04741535E1,1.8638807E1,1.0286225E0,9.650289E0],"tree_param":{"num_deleted":"0","num_feature":"49","num_nodes":"37","size_leaf_vector":"1"}},{"base_weights":[-3.3845247E-3,9.475018E-2,-5.133403E-1,-1.2765796E-2,1.2198742E-1,-4.0996614E-1,-1.0663291E0,9.38471E-2,-5.5325407E-1,-3.8422916E-2,-7.429464E-1,-1.1938941E0,8.34579E-2,2.4573433E-1,-3.210399E-1,-4.1453022E-1,-1.2819465E0,-2.3512872E-1,1.7002365E-1,-9.4197327E-1,1.2470747E-2,-1.225233E-1,-2.2611795E-2,-6.7553416E-2,7.600376E-2,-9.2618633E-4,1.29714E-1,-5.241213E-2,2.2692643E-2,1.7107632E-2,-5.8194812E-2,-1.5979709E-1,-5.0486416E-2,-8.8711806E-2,9.834343E-3,-9.781065E-2,-5.613524E-3,-9.162711E-2,5.8729958E-2],"categories":[],"categories_nodes":[],"categories_segments":[],"categories_sizes":[],"default_left":[0,0,0,0,0,0,0,0,0,0,0,0,0,0,0,0,0,0,0,0,0,0,0,0,0,0,0,0,0,0,0,0,0,0,0,0,0,0,0],"id":16,"left_children":[1,3,5,7,-1,9,11,13,15,17,19,21,23,25,27,29,31,33,-1,35,37,-1,-1,-1,-1,-1,-1,-1,-1,-1,-1,-1,-1,-1,-1,-1,-1,-1,-1],"loss_changes":[5.8138123E1,1.17888855E2,1.013422E1,5.134871E1,0E0,1.9657726E1,4.4282684E0,4.6928898E1,1.4142059E1,2.6485706E1,1.2742008E1,3.6719513E-1,2.4363074E0,1.4627249E2,2.2352268E1,1.2390392E1,4.604168E0,1.53499775E1,0E0,1.974823E0,1.0333494E1,0E0,0E0,0E0,0E0,0E0,0E0,0E0,0E0,0E0,0E0,0E0,0E0,0E0,0E0,0E0,0E0,0E0,0E0],"parents":[2147483647,0,0,1,1,2,2,3,3,5,5,6,6,7,7,8,8,9,9,10,10,11,11,12,12,13,13,14,14,15,15,16,16,17,17,19,19,20,20],"right_children":[2,4,6,8,-1,10,12,14,16,18,20,22,24,26,28,30,32,34,-1,36,38,-1,-1,-1,-1,-1,-1,-1,-1,-1,-1,-1,-1,-1,-1,-1,-1,-1,-1],"split_conditions":[5E-1,8.135491E-4,2.3041103E0,5.6021E-1,1.2198742E-1,9.959937E-1,5.5348754E0,0E0,2.5938933E0,3.9141057E-3,3.1136394E0,9.289718E-1,1.6774652E0,-4.9494278E-1,3.0085657E0,-1.0340322E0,-4.938295E-1,2.8765798E-3,1.7002365E-1,2.3319485E0,1.5936245E0,-1.225233E-1,-2.2611795E-2,-6.7553416E-2,7.600376E-2,-9.2618633E-4,1.29714E-1,-5.241213E-2,2.2692643E-2,1.7107632E-2,-5.8194812E-2,-1.5979709E-1,-5.0486416E-2,-8.8711806E-2,9.834343E-3,-9.781065E-2,-5.613524E-3,-9.162711E-2,5.8729958E-2],"split_indices":[10,10,45,15,0,13,43,10,47,13,40,0,42,10,39,3,11,47,0,34,36,0,0,0,0,0,0,0,0,0,0,0,0,0,0,0,0,0,0],"split_type":[0,0,0,0,0,0,0,0,0,0,0,0,0,0,0,0,0,0,0,0,0,0,0,0,0,0,0,0,0,0,0,0,0,0,0,0,0,0,0],"sum_hessian":[1.1589235E3,9.724127E2,1.8651074E2,8.8841614E2,8.399658E1,1.5875562E2,2.775512E1,7.425812E2,1.4583496E2,7.570207E1,8.305355E1,2.5027065E1,2.728055E0,5.440551E2,1.9852605E2,1.2394517E2,2.1889797E1,6.883644E1,6.865632E0,6.5644E1,1.7409554E1,2.3884275E1,1.1427891E0,1.2167921E0,1.511263E0,4.3858234E2,1.05472786E2,1.4501E2,5.3516045E1,2.741874E1,9.652643E1,1.47188635E1,7.170933E0,2.2833353E1,4.6003086E1,6.2862785E1,2.7812085E0,6.362236E0,1.10473175E1],"tree_param":{"num_deleted":"0","num_feature":"49","num_nodes":"39","size_leaf_vector":"1"}},{"base_weights":[-5.366397E-3,9.171591E-2,-4.4530165E-1,-2.7630713E-2,1.2362734E-1,-2.232906E-1,-7.602599E-1,1.3051827E-1,-4.417046E-1,-4.1315886E-1,4.2167833E-1,-8.343349E-1,4.966326E-1,-1.6198424E-1,1.3589169E-1,-9.4786465E-1,-2.364985E-1,-2.7745152E-1,-1.2137498E-1,-5.650896E-1,8.971923E-1,-9.151367E-1,4.5394087E-1,1.2561113E-1,-5.668621E-2,3.2623317E-2,-4.7542345E-2,-1.1427724E-1,-1.1551832E-2,1.3100629E-1,-5.060656E-2,-3.7153658E-2,1.12451196E-1,-1.1574353E-1,9.511107E-2,1.0948312E-1,-7.959635E-2,-5.3525675E-2,-1.12294815E-1,-6.980329E-2,1.04093015E-1],"categories":[],"categories_nodes":[],"categories_segments":[],"categories_sizes":[],"default_left":[0,0,0,0,0,0,0,0,0,0,0,0,0,0,0,0,0,0,0,0,0,0,0,0,0,0,0,0,0,0,0,0,0,0,0,0,0,0,0,0,0],"id":17,"left_children":[1,3,5,7,-1,9,11,13,15,17,19,21,23,25,-1,27,29,31,-1,33,35,37,39,-1,-1,-1,-1,-1,-1,-1,-1,-1,-1,-1,-1,-1,-1,-1,-1,-1,-1],"loss_changes":[4.8941784E1,1.2827594E2,1.4219685E1,5.5768803E1,0E0,1.5251839E1,8.367783E0,2.2162791E2,2.4107365E1,9.9171715E0,1.3856203E1,8.869953E0,5.0503707E0,7.641587E1,0E0,1.0681591E1,7.102459E1,1.1327E1,0E0,9.899292E0,7.4619207E0,5.2654686E0,4.3871584E0,0E0,0E0,0E0,0E0,0E0,0E0,0E0,0E0,0E0,0E0,0E0,0E0,0E0,0E0,0E0,0E0,0E0,0E0],"parents":[2147483647,0,0,1,1,2,2,3,3,5,5,6,6,7,7,8,8,9,9,10,10,11,11,12,12,13,13,15,15,16,16,17,17,19,19,20,20,21,21,22,22],"right_children":[2,4,6,8,-1,10,12,14,16,18,20,22,24,26,-1,28,30,32,-1,34,36,38,40,-1,-1,-1,-1,-1,-1,-1,-1,-1,-1,-1,-1,-1,-1,-1,-1,-1,-1],"split_conditions":[5E-1,3.5214573E-3,1.3771187E-2,0E0,1.2362734E-1,3.3861756E0,4.1417766E0,-4.938295E-1,-4.9494278E-1,6.972429E-1,-8.330585E-2,1.3506174E-1,-1.1871502E-1,-7.6750815E-1,1.3589169E-1,1.1250578E0,0E0,3.3277082E0,-1.2137498E-1,3.5577664E0,9.97403E-1,-1.09153405E-1,1.6912486E-1,1.2561113E-1,-5.668621E-2,3.2623317E-2,-4.7542345E-2,-1.1427724E-1,-1.1551832E-2,1.3100629E-1,-5.060656E-2,-3.7153658E-2,1.12451196E-1,-1.1574353E-1,9.511107E-2,1.0948312E-1,-7.959635E-2,-5.3525675E-2,-1.12294815E-1,-6.980329E-2,1.04093015E-1],"split_indices":[11,11,1,11,0,39,35,11,10,6,3,32,0,0,0,41,10,45,0,38,46,6,27,0,0,0,0,0,0,0,0,0,0,0,0,0,0,0,0,0,0],"split_type":[0,0,0,0,0,0,0,0,0,0,0,0,0,0,0,0,0,0,0,0,0,0,0,0,0,0,0,0,0,0,0,0,0,0,0,0,0,0,0,0,0],"sum_hessian":[1.143127E3,9.369341E2,2.0619286E2,8.4926685E2,8.766725E1,1.22130615E2,8.406223E1,6.148702E2,2.3439665E2,9.4751724E1,2.7378893E1,7.977637E1,4.285868E0,4.9725262E2,1.17617546E2,6.643129E1,1.6796536E2,8.227657E1,1.2475153E1,8.773596E0,1.8605297E1,7.541363E1,4.3627405E0,2.4495046E0,1.8363636E0,1.9427979E2,3.0297284E2,5.3427296E1,1.3003991E1,2.430304E1,1.4366232E2,7.785789E1,4.4186873E0,6.5264373E0,2.2471585E0,1.7029871E1,1.5754251E0,2.810129E1,4.7312336E1,1.351287E0,3.0114534E0],"tree_param":{"num_deleted":"0","num_feature":"49","num_nodes":"41","size_leaf_vector":"1"}},{"base_weights":[6.2468485E-4,9.326787E-2,-4.6949443E-1,-5.7319226E-3,1.2008937E-1,-6.7175144E-1,-1.8072318E-1,1.141109E-1,-4.2471537E-1,-2.7553245E-1,-9.892729E-1,-1.1331184E0,-1.1893966E-2,1.6811936E-1,-8.4378016E-1,-2.7074468E-1,-9.310215E-1,2.8798044E-1,-7.323611E-1,-1.031257E0,3.7715532E-2,-9.111861E-3,-1.22515894E-1,-6.968738E-1,1.845761E-1,-2.9523015E-2,2.8830314E-2,-9.758161E-2,4.5306798E-2,-8.633588E-3,-8.2068086E-2,-1.0350724E-1,2.9154062E-2,6.915745E-2,-6.6353455E-2,-1.09864235E-1,7.534986E-2,-8.544644E-2,-1.194536E-1,1.7284248E-2,-9.6753255E-2,5.55952E-2,-3.364401E-2],"categories":[],"categories_nodes":[],"categories_segments":[],"categories_sizes":[],"default_left":[0,0,0,0,0,0,0,0,0,0,0,0,0,0,0,0,0,0,0,0,0,0,0,0,0,0,0,0,0,0,0,0,0,0,0,0,0,0,0,0,0,0,0],"id":18,"left_children":[1,3,5,7,-1,9,11,13,15,17,19,21,23,25,27,29,31,33,35,37,-1,-1,-1,39,41,-1,-1,-1,-1,-1,-1,-1,-1,-1,-1,-1,-1,-1,-1,-1,-1,-1,-1],"loss_changes":[4.8401047E1,1.0202342E2,1.047641E1,4.2956867E1,0E0,1.3062016E1,1.2239085E1,3.4456905E1,1.4464584E1,1.2901747E1,3.831684E0,8.578844E-1,9.120128E0,3.517073E1,6.5797977E0,1.4797115E1,5.9504013E0,9.146214E0,1.583521E1,4.3293762E-1,0E0,0E0,0E0,3.8082762E0,1.032901E1,0E0,0E0,0E0,0E0,0E0,0E0,0E0,0E0,0E0,0E0,0E0,0E0,0E0,0E0,0E0,0E0,0E0,0E0],"parents":[2147483647,0,0,1,1,2,2,3,3,5,5,6,6,7,7,8,8,9,9,10,10,11,11,12,12,13,13,14,14,15,15,16,16,17,17,18,18,19,19,23,23,24,24],"right_children":[2,4,6,8,-1,10,12,14,16,18,20,22,24,26,28,30,32,34,36,38,-1,-1,-1,40,42,-1,-1,-1,-1,-1,-1,-1,-1,-1,-1,-1,-1,-1,-1,-1,-1,-1,-1],"split_conditions":[5E-1,8.135491E-4,1.6161636E0,4.4498122E-1,1.2008937E-1,4.674543E-1,-1.9834232E-1,8.0614406E-1,1.8760414E0,-4.0659112E-1,2.957487E0,2.5196094E-3,7.849671E-2,2.5196094E-3,2.6732097E0,4.049914E-1,8.475599E-1,2.198339E-1,7.144743E-1,9.2161015E-2,3.7715532E-2,-9.111861E-3,-1.22515894E-1,5.863233E-2,-1.059322E-3,-2.9523015E-2,2.8830314E-2,-9.758161E-2,4.5306798E-2,-8.633588E-3,-8.2068086E-2,-1.0350724E-1,2.9154062E-2,6.915745E-2,-6.6353455E-2,-1.09864235E-1,7.534986E-2,-8.544644E-2,-1.194536E-1,1.7284248E-2,-9.6753255E-2,5.55952E-2,-3.364401E-2],"split_indices":[10,10,36,15,0,40,3,1,37,15,44,37,37,37,46,39,3,47,3,1,0,0,0,32,1,0,0,0,0,0,0,0,0,0,0,0,0,0,0,0,0,0,0],"split_type":[0,0,0,0,0,0,0,0,0,0,0,0,0,0,0,0,0,0,0,0,0,0,0,0,0,0,0,0,0,0,0,0,0,0,0,0,0,0,0,0,0,0,0],"sum_hessian":[1.1101637E3,9.282534E2,1.8191028E2,8.529235E2,7.532992E1,1.0599692E2,7.591337E1,6.636011E2,1.8932242E2,4.8125828E1,5.787109E1,1.0481492E1,6.543188E1,6.2906177E2,3.4539295E1,1.4650241E2,4.2819996E1,2.1614433E1,2.6511395E1,5.645496E1,1.4161285E0,1.1003851E0,9.381106E0,1.4130129E1,5.1301746E1,1.2908942E2,4.9997238E2,3.1642353E1,2.8969429E0,1.1071533E2,3.5787083E1,3.9678185E1,3.141813E0,1.5442593E1,6.171841E0,2.153153E1,4.979864E0,3.0392578E1,2.6062382E1,3.3517556E0,1.0778373E1,3.0025034E1,2.127671E1],"tree_param":{"num_deleted":"0","num_feature":"49","num_nodes":"43","size_leaf_vector":"1"}},{"base_weights":[-1.1707783E-2,3.2082777E-2,-8.24795E-1,-7.1275055E-1,7.975993E-2,-9.448114E-3,-9.7964466E-1,3.4140855E-2,-1.4029279E0,1.7025362E-1,-3.701277E-1,7.6446664E-1,-9.6121155E-2,4.9218174E-2,-1.1051999E0,-1.0662715E0,6.4279425E-1,-1.6127139E0,1.2008725E-1,8.055756E-2,1.1731938E-1,-9.537769E-1,-2.2738323E-1,-2.127666E-2,1.2090546E-1,-8.444562E-2,7.9158604E-1,-3.3171025E-1,-1.2056226E0,-1.9183557E-1,4.6839662E-2,-5.5898245E-2,1.2266886E-1,-1.7103098E-1,2.0221278E-2,1.1294718E-1,-1.0917764E-1,2.5187675E-2,-3.1773698E-2,-0E0,-1.09625995E-1,-7.60644E-2,-4.350033E-3,4.0635537E-2,-4.800714E-2,1.9321155E-2,1.0087615E-1,6.872231E-2,-1.0098521E-1,-5.559385E-2,-1.3071916E-1],"categories":[],"categories_nodes":[],"categories_segments":[],"categories_sizes":[],"default_left":[0,0,0,0,0,0,0,0,0,0,0,0,0,0,0,0,0,0,0,0,0,0,0,0,0,0,0,0,0,0,0,0,0,0,0,0,0,0,0,0,0,0,0,0,0,0,0,0,0,0,0],"id":19,"left_children":[1,3,5,7,9,11,13,15,17,19,21,23,-1,25,27,29,31,33,35,37,-1,39,41,43,-1,-1,45,47,49,-1,-1,-1,-1,-1,-1,-1,-1,-1,-1,-1,-1,-1,-1,-1,-1,-1,-1,-1,-1,-1,-1],"loss_changes":[3.9250683E1,3.7069977E1,7.004986E0,3.2549744E1,4.0033676E1,8.197585E0,6.2616653E0,2.1446314E1,1.0798767E1,7.342626E1,1.3380407E1,2.265718E0,0E0,4.6490655E0,2.726303E0,1.59237175E1,1.5264649E1,5.613907E0,7.1511335E0,5.1428627E1,0E0,4.393284E0,1.2999286E1,8.0980474E-1,0E0,0E0,1.8639469E-1,5.1114154E0,1.5205917E0,0E0,0E0,0E0,0E0,0E0,0E0,0E0,0E0,0E0,0E0,0E0,0E0,0E0,0E0,0E0,0E0,0E0,0E0,0E0,0E0,0E0,0E0],"parents":[2147483647,0,0,1,1,2,2,3,3,4,4,5,5,6,6,7,7,8,8,9,9,10,10,11,11,13,13,14,14,15,15,16,16,17,17,18,18,19,19,21,21,22,22,23,23,26,26,27,27,28,28],"right_children":[2,4,6,8,10,12,14,16,18,20,22,24,-1,26,28,30,32,34,36,38,-1,40,42,44,-1,-1,46,48,50,-1,-1,-1,-1,-1,-1,-1,-1,-1,-1,-1,-1,-1,-1,-1,-1,-1,-1,-1,-1,-1,-1],"split_conditions":[8.365501E-1,-1.4353932E0,-6.2516934E-1,-3.0620658E0,5E-1,-2.8833972E-2,-8.02122E-1,1.407728E0,2.0637512E0,8.135491E-4,-2.60155E-1,-8.148531E-1,-9.6121155E-2,2.7299461E0,-4.829889E-1,3.3667789E0,-2.0016146E0,5.7678456E0,2.2735186E0,0E0,1.1731938E-1,6.348169E-2,1.0994944E-1,-6.3561743E-1,1.2090546E-1,-8.444562E-2,1.8732347E0,8.237995E-2,-4.734864E-1,-1.9183557E-1,4.6839662E-2,-5.5898245E-2,1.2266886E-1,-1.7103098E-1,2.0221278E-2,1.1294718E-1,-1.0917764E-1,2.5187675E-2,-3.1773698E-2,-0E0,-1.09625995E-1,-7.60644E-2,-4.350033E-3,4.0635537E-2,-4.800714E-2,1.9321155E-2,1.0087615E-1,6.872231E-2,-1.0098521E-1,-5.559385E-2,-1.3071916E-1],"split_indices":[0,7,16,14,10,7,2,45,33,10,5,16,0,48,14,47,5,48,33,10,0,32,37,15,0,0,42,32,4,0,0,0,0,0,0,0,0,0,0,0,0,0,0,0,0,0,0,0,0,0,0],"split_type":[0,0,0,0,0,0,0,0,0,0,0,0,0,0,0,0,0,0,0,0,0,0,0,0,0,0,0,0,0,0,0,0,0,0,0,0,0,0,0,0,0,0,0,0,0,0,0,0,0,0,0],"sum_hessian":[1.098406E3,1.043067E3,5.5339058E1,6.178517E1,9.812818E2,9.104888E0,4.6234173E1,3.006033E1,3.1724842E1,8.176563E2,1.6362552E2,5.072207E0,4.0326815E0,5.007962E0,4.1226208E1,1.0379182E1,1.9681149E1,2.7889935E1,3.8349066E0,7.516169E2,6.6039406E1,3.0900059E1,1.3272545E2,2.0956578E0,2.9765491E0,2.1488822E0,2.8590798E0,5.346277E0,3.5879932E1,6.554896E0,3.8242857E0,6.393464E0,1.3287684E1,2.6573702E1,1.3162338E0,2.1743522E0,1.6605544E0,5.2599036E2,2.2562653E2,4.0977206E0,2.6802338E1,3.3088463E1,9.963699E1,1.0310113E0,1.0646464E0,1.3871734E0,1.4719065E0,2.0720668E0,3.2742105E0,5.8592677E0,3.0020664E1],"tree_param":{"num_deleted":"0","num_feature":"49","num_nodes":"51","size_leaf_vector":"1"}},{"base_weights":[-2.1668777E-3,7.978581E-2,-3.8217542E-1,-3.0400053E-1,1.8788819E-1,-6.2016076E-1,4.370508E-2,-5.2694434E-1,2.6533377E-1,2.4289681E-1,-8.2306147E-1,-1.0209178E0,-2.9362446E-1,2.6407558E-1,-1.0479836E0,-9.154742E-1,-2.1520132E-1,4.8285666E-1,-8.195601E-1,-4.735737E-1,3.0116218E-1,-1.0263093E0,5.248351E-1,-1.2918011E0,1.1035073E-1,1.2560006E0,-6.225991E-1,-1.12755455E-1,4.4220647E-1,-1.1482793E0,-1.5986167E-2,-1.1514983E-1,-3.647235E-2,2.3631842E-3,-7.6013915E-2,-1.2888652E-1,5.884388E-2,-1.22168176E-1,5.7705265E-2,-9.4610445E-2,6.765448E-2,-7.020535E-2,3.505665E-2,-1.5413344E-2,-1.0938036E-1,1.18059255E-1,-7.219284E-2,-1.00152254E-1,-1.9432001E-1,-1.1671483E-1,8.287259E-2,1.4674728E-1,-2.3136785E-2,7.40083E-2,-7.292869E-2,5.9363313E-2,-8.4260255E-2,-1.2750427E-1,-2.7112503E-2],"categories":[],"categories_nodes":[],"categories_segments":[],"categories_sizes":[],"default_left":[0,0,0,0,0,0,0,0,0,0,0,0,0,0,0,0,0,0,0,0,0,0,0,0,0,0,0,0,0,0,0,0,0,0,0,0,0,0,0,0,0,0,0,0,0,0,0,0,0,0,0,0,0,0,0,0,0,0,0],"id":20,"left_children":[1,3,5,7,9,11,13,15,17,19,21,23,25,27,29,31,33,35,37,39,41,43,45,47,49,51,53,-1,55,57,-1,-1,-1,-1,-1,-1,-1,-1,-1,-1,-1,-1,-1,-1,-1,-1,-1,-1,-1,-1,-1,-1,-1,-1,-1,-1,-1,-1,-1],"loss_changes":[3.368861E1,3.6922382E1,1.953925E1,2.4983456E1,3.875425E1,1.5711063E1,1.6940905E1,1.6763653E1,1.347312E1,2.7650875E1,1.0441612E1,1.706641E1,3.61551E1,1.5001129E1,7.379341E-1,7.5272293E0,1.0459369E1,9.47748E0,6.145681E0,2.7757957E1,3.0470116E1,1.5700569E0,5.239231E0,6.1542053E0,1.1436627E1,4.379421E0,8.979694E0,0E0,1.0765599E1,6.5075684E-1,0E0,0E0,0E0,0E0,0E0,0E0,0E0,0E0,0E0,0E0,0E0,0E0,0E0,0E0,0E0,0E0,0E0,0E0,0E0,0E0,0E0,0E0,0E0,0E0,0E0,0E0,0E0,0E0,0E0],"parents":[2147483647,0,0,1,1,2,2,3,3,4,4,5,5,6,6,7,7,8,8,9,9,10,10,11,11,12,12,13,13,14,14,15,15,16,16,17,17,18,18,19,19,20,20,21,21,22,22,23,23,24,24,25,25,26,26,28,28,29,29],"right_children":[2,4,6,8,10,12,14,16,18,20,22,24,26,28,30,32,34,36,38,40,42,44,46,48,50,52,54,-1,56,58,-1,-1,-1,-1,-1,-1,-1,-1,-1,-1,-1,-1,-1,-1,-1,-1,-1,-1,-1,-1,-1,-1,-1,-1,-1,-1,-1,-1,-1],"split_conditions":[5.377895E-1,-5.667373E-1,1.1416742E0,6.9135886E-1,3.655866E0,8.838095E-3,3.094472E0,-7.8122325E-2,5.4371905E-1,-1.4262055E0,3.8234792E0,4.0941305E0,-7.680654E-1,1.0266492E-2,8.0991197E-1,-7.065678E-1,3.5225463E-1,-1.4133462E0,7.4323565E-1,3.0280048E-1,4.7566704E-2,-7.5146526E-1,4.3876934E0,6.513393E-1,6.54688E-1,4.5727113E-1,-9.043368E-1,-1.12755455E-1,7.995021E-1,7.6708245E-1,-1.5986167E-2,-1.1514983E-1,-3.647235E-2,2.3631842E-3,-7.6013915E-2,-1.2888652E-1,5.884388E-2,-1.22168176E-1,5.7705265E-2,-9.4610445E-2,6.765448E-2,-7.020535E-2,3.505665E-2,-1.5413344E-2,-1.0938036E-1,1.18059255E-1,-7.219284E-2,-1.00152254E-1,-1.9432001E-1,-1.1671483E-1,8.287259E-2,1.4674728E-1,-2.3136785E-2,7.40083E-2,-7.292869E-2,5.9363313E-2,-8.4260255E-2,-1.2750427E-1,-2.7112503E-2],"split_indices":[1,1,42,33,33,41,35,7,0,7,45,44,0,46,33,1,2,7,2,39,32,15,33,32,32,16,16,0,0,4,0,0,0,0,0,0,0,0,0,0,0,0,0,0,0,0,0,0,0,0,0,0,0,0,0,0,0,0,0],"split_type":[0,0,0,0,0,0,0,0,0,0,0,0,0,0,0,0,0,0,0,0,0,0,0,0,0,0,0,0,0,0,0,0,0,0,0,0,0,0,0,0,0,0,0,0,0,0,0,0,0,0,0,0,0,0,0,0,0,0,0],"sum_hessian":[1.0787991E3,8.8785175E2,1.9094733E2,1.9452164E2,6.9333014E2,1.2235372E2,6.8593605E1,1.3996376E2,5.455787E1,6.5836523E2,3.4964855E1,5.3841484E1,6.851224E1,5.7779766E1,1.0813836E1,6.130324E1,7.866052E1,4.5984924E1,8.572945E0,4.8848385E1,6.0951685E2,3.065517E1,4.3096833E0,4.3396618E1,1.0444868E1,1.1450955E1,5.706128E1,5.8881183E0,5.1891647E1,9.352168E0,1.4616681E0,4.2022255E1,1.9280987E1,5.5228374E1,2.3432144E1,1.9026779E0,4.408225E1,6.8092413E0,1.7637038E0,3.481063E1,1.4037753E1,2.7892405E1,5.8162445E2,2.5441687E0,2.8111002E1,2.9115717E0,1.3981113E0,3.18808E1,1.1515817E1,3.4844687E0,6.9603996E0,1.0096112E1,1.3548434E0,3.6439764E0,5.34173E1,4.6971424E1,4.920226E0,7.675336E0,1.6768317E0],"tree_param":{"num_deleted":"0","num_feature":"49","num_nodes":"59","size_leaf_vector":"1"}},{"base_weights":[-3.7245518E-3,8.709523E-2,-4.1326678E-1,-2.3842273E-2,1.201386E-1,-6.37283E-1,-1.07944556E-1,1.05882116E-1,-3.6190444E-1,-7.288875E-1,-1.1773476E-1,1.1138976E-1,-9.435456E-1,-1.4370051E-1,1.3023858E-1,-7.864138E-1,-1.7085084E-1,9.928136E-2,-7.5939566E-1,-9.366447E-1,3.344079E-1,2.6896498E-1,-7.688762E-1,-1.1626352E-1,3.1512654E-1,-4.7835484E-2,2.284622E-2,-1.0103872E-1,-1.310384E-2,1.24359466E-1,-4.3088373E-2,-1.032059E-1,-5.5775154E-2,-1.7494125E-3,-1.07806146E-1,-6.787296E-2,9.602645E-2,-1.343144E-2,5.8148332E-2,-1.2269729E-1,1.3666349E-2,-2.9228408E-2,8.609442E-2],"categories":[],"categories_nodes":[],"categories_segments":[],"categories_sizes":[],"default_left":[0,0,0,0,0,0,0,0,0,0,0,0,0,0,0,0,0,0,0,0,0,0,0,0,0,0,0,0,0,0,0,0,0,0,0,0,0,0,0,0,0,0,0],"id":21,"left_children":[1,3,5,7,-1,9,11,13,15,17,19,21,23,25,-1,27,29,-1,31,33,35,37,39,-1,41,-1,-1,-1,-1,-1,-1,-1,-1,-1,-1,-1,-1,-1,-1,-1,-1,-1,-1],"loss_changes":[4.00685E1,1.09034325E2,1.3233257E1,3.523531E1,0E0,5.179592E0,1.5612646E1,1.735509E2,1.7843588E1,5.7314568E0,7.1143384E0,9.514188E0,5.3315926E0,6.0022346E1,0E0,9.84137E0,5.7508247E1,0E0,4.4431305E0,7.57802E-1,8.534693E0,7.4396863E0,4.5931234E0,0E0,1.4168179E0,0E0,0E0,0E0,0E0,0E0,0E0,0E0,0E0,0E0,0E0,0E0,0E0,0E0,0E0,0E0,0E0,0E0,0E0],"parents":[2147483647,0,0,1,1,2,2,3,3,5,5,6,6,7,7,8,8,9,9,10,10,11,11,12,12,13,13,15,15,16,16,18,18,19,19,20,20,21,21,22,22,24,24],"right_children":[2,4,6,8,-1,10,12,14,16,18,20,22,24,26,-1,28,30,-1,32,34,36,38,40,-1,42,-1,-1,-1,-1,-1,-1,-1,-1,-1,-1,-1,-1,-1,-1,-1,-1,-1,-1],"split_conditions":[5E-1,3.5214573E-3,6.898594E-1,0E0,1.201386E-1,2.6685228E0,2.3685644E0,-4.938295E-1,-4.9494278E-1,-6.2911415E-1,7.957754E-2,3.6337357E0,8.322937E-1,2.413347E0,1.3023858E-1,7.8699255E-1,0E0,9.928136E-2,7.9195E-1,6.141037E-1,1.62709E0,2.032075E-1,3.9599153E-1,-1.1626352E-1,3.2609776E-1,-4.7835484E-2,2.284622E-2,-1.0103872E-1,-1.310384E-2,1.24359466E-1,-4.3088373E-2,-1.032059E-1,-5.5775154E-2,-1.7494125E-3,-1.07806146E-1,-6.787296E-2,9.602645E-2,-1.343144E-2,5.8148332E-2,-1.2269729E-1,1.3666349E-2,-2.9228408E-2,8.609442E-2],"split_indices":[11,11,44,11,0,45,37,11,10,5,32,43,38,44,0,41,10,0,40,36,38,3,2,0,2,0,0,0,0,0,0,0,0,0,0,0,0,0,0,0,0,0,0],"split_type":[0,0,0,0,0,0,0,0,0,0,0,0,0,0,0,0,0,0,0,0,0,0,0,0,0,0,0,0,0,0,0,0,0,0,0,0,0,0,0,0,0,0,0],"sum_hessian":[1.0744238E3,8.798517E2,1.945721E2,8.0099445E2,7.885722E1,1.1141307E2,8.315903E1,5.79149E2,2.2184549E2,9.4207436E1,1.7205637E1,6.646093E1,1.6698103E1,4.798515E2,9.929747E1,6.772502E1,1.5412047E2,1.0340023E0,9.317343E1,5.817934E0,1.1387702E1,5.7055542E1,9.405383E0,1.4355137E1,2.3429656E0,2.5264903E2,2.2720247E2,4.995777E1,1.7767252E1,2.3286552E1,1.3083391E2,3.7649548E1,5.552388E1,1.0198923E0,4.798042E0,4.2551684E0,7.132534E0,2.5019787E1,3.2035755E1,6.0833774E0,3.3220057E0,1.2420486E0,1.100917E0],"tree_param":{"num_deleted":"0","num_feature":"49","num_nodes":"43","size_leaf_vector":"1"}},{"base_weights":[2.008857E-3,5.003351E-2,-6.9637686E-1,1.3272278E-1,-3.3297813E-1,-1.1840196E0,-2.5938034E-1,3.7341334E-2,1.17367685E-1,-9.036346E-2,-6.6357005E-1,3.4876034E-2,-1.2651383E0,1.5923889E-1,-7.3874384E-1,6.6720255E-2,-1.5399487E-1,-5.5415887E-1,1.6720201E-1,-7.4788743E-1,6.664685E-1,-0E0,-1.3156414E0,5.1472956E-1,-8.5976684E-1,4.485752E-2,-8.818028E-1,2.0261869E-2,-3.0500917E-2,-9.643556E-2,-9.201474E-3,3.9209817E-2,-6.885233E-2,-1.0183638E-1,-3.761154E-2,1.1626041E-1,-3.9985705E-2,-1.3871634E-1,-2.3437472E-2,9.018605E-2,-6.611452E-2,-9.9406384E-2,-7.893606E-3,1.6072826E-2,-1.0029743E-1],"categories":[],"categories_nodes":[],"categories_segments":[],"categories_sizes":[],"default_left":[0,0,0,0,0,0,0,0,0,0,0,0,0,0,0,0,0,0,0,0,0,0,0,0,0,0,0,0,0,0,0,0,0,0,0,0,0,0,0,0,0,0,0,0,0],"id":22,"left_children":[1,3,5,7,9,11,13,15,-1,17,19,-1,21,23,25,27,-1,29,31,33,35,-1,37,39,41,-1,43,-1,-1,-1,-1,-1,-1,-1,-1,-1,-1,-1,-1,-1,-1,-1,-1,-1,-1],"loss_changes":[3.4643375E1,3.0692604E1,1.3708546E1,7.9000854E1,1.3660835E1,4.3892593E0,7.4865446E0,3.3853916E1,0E0,1.2141212E1,8.633989E0,0E0,1.959774E0,7.7108903E0,3.3727674E0,3.6382477E1,0E0,6.680853E0,1.2801308E1,6.3850403E0,3.0691924E0,0E0,1.7266502E0,7.7418046E0,3.9263058E-1,0E0,2.2448673E0,0E0,0E0,0E0,0E0,0E0,0E0,0E0,0E0,0E0,0E0,0E0,0E0,0E0,0E0,0E0,0E0,0E0,0E0],"parents":[2147483647,0,0,1,1,2,2,3,3,4,4,5,5,6,6,7,7,9,9,10,10,12,12,13,13,14,14,15,15,17,17,18,18,19,19,20,20,22,22,23,23,24,24,26,26],"right_children":[2,4,6,8,10,12,14,16,-1,18,20,-1,22,24,26,28,-1,30,32,34,36,-1,38,40,42,-1,44,-1,-1,-1,-1,-1,-1,-1,-1,-1,-1,-1,-1,-1,-1,-1,-1,-1,-1],"split_conditions":[7.856248E-1,5E-1,-4.938295E-1,3.5214573E-3,7.415254E-3,-9.616613E-1,1.3614222E-1,3.7203841E0,1.17367685E-1,5.668699E-1,4.199814E0,3.4876034E-2,5.5912964E-2,1.7245381E0,-9.3666977E-1,0E0,-1.5399487E-1,1.8647313E0,4.5412427E-1,9.100754E-2,6.1781913E-1,-0E0,3.1998234E0,8.939327E-1,5.404357E-1,4.485752E-2,-5.7390404E-1,2.0261869E-2,-3.0500917E-2,-9.643556E-2,-9.201474E-3,3.9209817E-2,-6.885233E-2,-1.0183638E-1,-3.761154E-2,1.1626041E-1,-3.9985705E-2,-1.3871634E-1,-2.3437472E-2,9.018605E-2,-6.611452E-2,-9.9406384E-2,-7.893606E-3,1.6072826E-2,-1.0029743E-1],"split_indices":[16,11,11,11,1,1,0,47,0,45,35,0,32,43,15,11,0,35,0,32,7,0,35,16,6,0,14,0,0,0,0,0,0,0,0,0,0,0,0,0,0,0,0,0,0],"split_type":[0,0,0,0,0,0,0,0,0,0,0,0,0,0,0,0,0,0,0,0,0,0,0,0,0,0,0,0,0,0,0,0,0,0,0,0,0,0,0,0,0,0,0,0,0],"sum_hessian":[1.0327941E3,9.673458E2,6.544821E1,7.963373E2,1.7100853E2,3.0015614E1,3.5432594E1,7.3053143E2,6.580583E1,9.953652E1,7.147201E1,1.2808642E0,2.8734749E1,1.9159853E1,1.6272743E1,7.1817566E2,1.2355785E1,3.526748E1,6.426904E1,6.769348E1,3.7785273E0,1.1068001E0,2.7627949E1,1.464411E1,4.515743E0,1.4450371E0,1.4827705E1,5.2644104E2,1.9173462E2,1.7993479E1,1.7274E1,5.1415115E1,1.2853931E1,3.8022594E1,2.9670885E1,2.5810957E0,1.1974316E0,2.5561739E1,2.0662107E0,1.1256295E1,3.387815E0,3.5107644E0,1.0049784E0,1.4240226E0,1.3403683E1],"tree_param":{"num_deleted":"0","num_feature":"49","num_nodes":"45","size_leaf_vector":"1"}},{"base_weights":[-2.53063E-3,3.0772269E-2,-9.7519416E-1,7.17085E-2,-6.8536896E-1,-1.1091335E0,-3.997566E-1,9.639382E-2,-1.1692146E0,-1.0810814E0,-1.625927E-1,-1.2597108E-1,-2.5371182E-1,-1.0300445E-1,3.8727486E-1,1.2424497E-1,-9.2534333E-1,-1.2153713E-1,-2.109208E-2,-5.6081206E-1,-1.3237146E-1,1.8961076E-1,-8.789942E-1,5.9971776E-2,-7.5189374E-2,1.0972849E-1,-6.642996E-2,-5.541969E-2,1.7048946E-2,7.044299E-2,-1.1553776E-1,-1.0917544E-1,1.2273845E-2,-4.9880046E-2,5.9203852E-2,-9.561112E-2,-1.2566986E-2],"categories":[],"categories_nodes":[],"categories_segments":[],"categories_sizes":[],"default_left":[0,0,0,0,0,0,0,0,0,0,0,0,0,0,0,0,0,0,0,0,0,0,0,0,0,0,0,0,0,0,0,0,0,0,0,0,0],"id":23,"left_children":[1,3,5,7,9,11,13,15,17,19,21,-1,23,-1,25,27,29,-1,-1,31,-1,33,35,-1,-1,-1,-1,-1,-1,-1,-1,-1,-1,-1,-1,-1,-1],"loss_changes":[3.3299442E1,2.9043604E1,2.0289345E0,2.8756157E1,1.0778507E1,2.9945297E0,4.496497E0,2.625084E1,4.1062355E-1,2.8808975E0,6.3817286E0,0E0,2.7529356E0,0E0,3.9618049E0,2.8223698E1,1.0032537E1,0E0,0E0,4.3934836E0,0E0,5.0306253E0,2.538128E-1,0E0,0E0,0E0,0E0,0E0,0E0,0E0,0E0,0E0,0E0,0E0,0E0,0E0,0E0],"parents":[2147483647,0,0,1,1,2,2,3,3,4,4,5,5,6,6,7,7,8,8,9,9,10,10,12,12,14,14,15,15,16,16,19,19,21,21,22,22],"right_children":[2,4,6,8,10,12,14,16,18,20,22,-1,24,-1,26,28,30,-1,-1,32,-1,34,36,-1,-1,-1,-1,-1,-1,-1,-1,-1,-1,-1,-1,-1,-1],"split_conditions":[8.7408596E-1,8.0133235E-1,2.5597723E0,4.3545327E0,2.1657363E-1,1.13530815E-1,2.4068722E-1,8.929239E-1,3.0930564E0,5.7815766E-1,3.5141394E-2,-1.2597108E-1,2.8765798E-3,-1.0300445E-1,4.3222693E-1,-1.4353932E0,-8.721485E-1,-1.2153713E-1,-2.109208E-2,2.5832826E-1,-1.3237146E-1,2.4893537E-1,3.9595582E0,5.9971776E-2,-7.5189374E-2,1.0972849E-1,-6.642996E-2,-5.541969E-2,1.7048946E-2,7.044299E-2,-1.1553776E-1,-1.0917544E-1,1.2273845E-2,-4.9880046E-2,5.9203852E-2,-9.561112E-2,-1.2566986E-2],"split_indices":[14,16,45,33,7,32,44,0,39,48,33,0,47,0,0,7,2,0,0,39,0,47,33,0,0,0,0,0,0,0,0,0,0,0,0,0,0],"split_type":[0,0,0,0,0,0,0,0,0,0,0,0,0,0,0,0,0,0,0,0,0,0,0,0,0,0,0,0,0,0,0,0,0,0,0,0,0],"sum_hessian":[1.023156E3,9.901209E2,3.303507E1,9.37567E2,5.255392E1,2.5904318E1,7.1307497E0,9.2026337E2,1.7303625E1,2.919539E1,2.3358532E1,2.152569E1,4.3786273E0,3.8587716E0,3.2719781E0,8.967943E2,2.3469105E1,1.615299E1,1.1506346E0,1.0469506E1,1.8725883E1,1.6059141E1,7.2993903E0,1.4647825E0,2.9138446E0,1.9840195E0,1.2879587E0,5.6388317E1,8.4040594E2,2.59398E0,2.0875124E1,5.6387587E0,4.8307476E0,5.744451E0,1.0314691E1,6.2569404E0,1.0424498E0],"tree_param":{"num_deleted":"0","num_feature":"49","num_nodes":"37","size_leaf_vector":"1"}},{"base_weights":[-2.704322E-2,4.007515E-3,-9.9135846E-1,-3.192397E-1,9.356858E-2,3.1089379E-2,-1.0678982E0,-7.4612534E-1,-1.4013033E-1,1.4617018E-1,-6.315226E-1,-1.2440811E0,-4.6972042E-1,2.1477486E-1,-8.221994E-1,-4.052653E-2,-8.907562E-1,1.9413571E-1,-6.324125E-1,-1.5323779E-1,-1.0924972E0,-1.276666E-1,-2.4511676E-2,-8.763294E-2,5.6433894E-2,8.5603E-2,-7.930304E-2,-4.9364608E-2,-1.12444006E-1,-4.7819186E-2,1.1472559E-2,-1.02726854E-1,6.118783E-2,-3.149921E-3,3.9204843E-2,-1.1518081E-1,2.4320882E-2,-9.312542E-2,1.758946E-2,5.4413885E-2,-1.2207204E-1],"categories":[],"categories_nodes":[],"categories_segments":[],"categories_sizes":[],"default_left":[0,0,0,0,0,0,0,0,0,0,0,0,0,0,0,0,0,0,0,0,0,0,0,0,0,0,0,0,0,0,0,0,0,0,0,0,0,0,0,0,0],"id":24,"left_children":[1,3,5,7,9,-1,11,13,15,17,19,21,23,25,27,29,31,33,35,37,39,-1,-1,-1,-1,-1,-1,-1,-1,-1,-1,-1,-1,-1,-1,-1,-1,-1,-1,-1,-1],"loss_changes":[3.0784834E1,2.87731E1,3.6042633E0,1.6288124E1,2.9758177E1,0E0,2.4678688E0,4.865574E0,1.1327982E1,2.724057E1,1.1339066E1,2.8007126E-1,4.1816688E0,4.1370153E0,5.1392593E0,9.363156E0,4.318713E0,3.0682125E1,1.9618204E1,7.1943355E0,6.3126698E0,0E0,0E0,0E0,0E0,0E0,0E0,0E0,0E0,0E0,0E0,0E0,0E0,0E0,0E0,0E0,0E0,0E0,0E0,0E0,0E0],"parents":[2147483647,0,0,1,1,2,2,3,3,4,4,6,6,7,7,8,8,9,9,10,10,11,11,12,12,13,13,14,14,15,15,16,16,17,17,18,18,19,19,20,20],"right_children":[2,4,6,8,10,-1,12,14,16,18,20,22,24,26,28,30,32,34,36,38,40,-1,-1,-1,-1,-1,-1,-1,-1,-1,-1,-1,-1,-1,-1,-1,-1,-1,-1,-1,-1],"split_conditions":[8.7408596E-1,2.5196094E-3,-9.209549E-1,-2.72111E-1,7.517438E-1,3.1089379E-2,1.2458862E0,-1.4742602E0,9.699787E-1,2.971106E0,7.270344E-1,9.464191E-1,9.389984E-1,-3.033254E0,1.0073497E0,-4.938295E-1,2.1012278E0,2.4034083E-3,2.708959E-1,4.40584E-3,4.0451188E-2,-1.276666E-1,-2.4511676E-2,-8.763294E-2,5.6433894E-2,8.5603E-2,-7.930304E-2,-4.9364608E-2,-1.12444006E-1,-4.7819186E-2,1.1472559E-2,-1.02726854E-1,6.118783E-2,-3.149921E-3,3.9204843E-2,-1.1518081E-1,2.4320882E-2,-9.312542E-2,1.758946E-2,5.4413885E-2,-1.2207204E-1],"split_indices":[14,37,2,3,16,0,34,7,28,46,46,2,37,14,48,11,35,34,35,44,37,0,0,0,0,0,0,0,0,0,0,0,0,0,0,0,0,0,0,0,0],"split_type":[0,0,0,0,0,0,0,0,0,0,0,0,0,0,0,0,0,0,0,0,0,0,0,0,0,0,0,0,0,0,0,0,0,0,0,0,0,0,0,0,0],"sum_hessian":[1.0236948E3,9.926247E2,3.1070148E1,2.1455684E2,7.780679E2,1.4822724E0,2.9587875E1,6.231425E1,1.5224258E2,7.2631384E2,5.175399E1,2.1892775E1,7.6951013E0,4.3412814E0,5.797297E1,1.3545561E2,1.6786978E1,6.849931E2,4.1320732E1,2.6160492E1,2.5593498E1,2.0835073E1,1.0577024E0,5.70216E0,1.992941E0,2.8058047E0,1.5354766E0,2.9197605E1,2.8775364E1,3.5092293E1,1.0036332E2,1.5739931E1,1.0470473E0,3.2023615E2,3.64757E2,2.5809813E1,1.551092E1,7.3234453E0,1.8837048E1,1.5671301E0,2.4026367E1],"tree_param":{"num_deleted":"0","num_feature":"49","num_nodes":"41","size_leaf_vector":"1"}},{"base_weights":[6.542346E-3,7.967019E-2,-3.8652575E-1,1.0155368E-3,1.1540299E-1,-2.6466957E-1,-8.0002844E-1,1.0052246E-1,-3.7254164E-1,-5.7873976E-1,-3.4147505E-2,-4.2065927E-1,-1.0548029E0,-6.2401587E-1,1.6488487E-1,-1.5368159E-1,-7.011966E-1,-1.0769986E0,-3.0682424E-1,1.2665342E-1,-2.8241274E-1,5.359183E-1,-6.339177E-1,-1.0970574E-1,-1.448211E-2,-8.887152E-2,7.193133E-2,-3.5539083E-2,2.5743702E-2,6.1937734E-3,-6.951853E-2,-1.1816832E-1,6.7071156E-3,-1.1753032E-1,-1.2516788E-2,-7.037364E-2,3.274851E-2,-5.5687338E-2,5.366672E-2,-1.8516498E-2,1.07692055E-1,-8.3487935E-2,2.8069211E-2],"categories":[],"categories_nodes":[],"categories_segments":[],"categories_sizes":[],"default_left":[0,0,0,0,0,0,0,0,0,0,0,0,0,0,0,0,0,0,0,0,0,0,0,0,0,0,0,0,0,0,0,0,0,0,0,0,0,0,0,0,0,0,0],"id":25,"left_children":[1,3,5,7,-1,9,11,13,15,17,19,21,23,25,27,29,31,33,35,-1,37,39,41,-1,-1,-1,-1,-1,-1,-1,-1,-1,-1,-1,-1,-1,-1,-1,-1,-1,-1,-1,-1],"loss_changes":[2.9131859E1,7.218019E1,7.690027E0,2.9683342E1,0E0,8.928249E0,2.839388E0,2.9499224E1,1.1884764E1,6.634239E0,2.3835358E1,3.6300793E0,5.0182915E-1,1.9001104E1,2.8047226E1,1.2045763E1,2.4796925E1,1.4053707E0,9.192068E0,0E0,1.428163E1,1.6102616E0,2.8066087E0,0E0,0E0,0E0,0E0,0E0,0E0,0E0,0E0,0E0,0E0,0E0,0E0,0E0,0E0,0E0,0E0,0E0,0E0,0E0,0E0],"parents":[2147483647,0,0,1,1,2,2,3,3,5,5,6,6,7,7,8,8,9,9,10,10,11,11,12,12,13,13,14,14,15,15,16,16,17,17,18,18,20,20,21,21,22,22],"right_children":[2,4,6,8,-1,10,12,14,16,18,20,22,24,26,28,30,32,34,36,-1,38,40,42,-1,-1,-1,-1,-1,-1,-1,-1,-1,-1,-1,-1,-1,-1,-1,-1,-1,-1,-1,-1],"split_conditions":[5E-1,8.135491E-4,5E-1,4.581137E-1,1.1540299E-1,-4.938295E-1,3.8032734E-3,-8.6501205E-1,9.843041E-1,1.788689E-3,-2.0031754E-3,6.6289045E-2,3.4821432E0,2.0039349E0,-6.202575E-1,9.310719E-1,1.9020371E0,3.220242E0,4.2346817E-1,1.2665342E-1,2.6972098E0,6.286569E-2,2.8912308E0,-1.0970574E-1,-1.448211E-2,-8.887152E-2,7.193133E-2,-3.5539083E-2,2.5743702E-2,6.1937734E-3,-6.951853E-2,-1.1816832E-1,6.7071156E-3,-1.1753032E-1,-1.2516788E-2,-7.037364E-2,3.274851E-2,-5.5687338E-2,5.366672E-2,-1.8516498E-2,1.07692055E-1,-8.3487935E-2,2.8069211E-2],"split_indices":[10,10,11,15,0,11,38,15,13,7,11,36,37,45,2,35,42,42,14,0,33,33,42,0,0,0,0,0,0,0,0,0,0,0,0,0,0,0,0,0,0,0,0],"split_type":[0,0,0,0,0,0,0,0,0,0,0,0,0,0,0,0,0,0,0,0,0,0,0,0,0,0,0,0,0,0,0,0,0,0,0,0,0,0,0,0,0,0,0],"sum_hessian":[1.01248193E3,8.5455005E2,1.5793193E2,7.9727496E2,5.727506E1,1.2343766E2,3.4494263E1,6.303603E2,1.6691469E2,5.142726E1,7.20104E1,1.508127E1,1.9412992E1,5.0591732E1,5.7976855E2,1.0125691E2,6.5657776E1,1.6981594E1,3.4445667E1,1.0819874E1,6.119053E1,2.3879826E0,1.2693287E1,1.8250086E1,1.1629055E0,4.2608677E1,7.983056E0,8.69673E1,4.9280124E2,7.292152E1,2.8335394E1,4.014347E1,2.5514301E1,1.5083894E1,1.8977E0,2.1217344E1,1.3228323E1,4.616394E1,1.5026588E1,1.2263362E0,1.1616465E0,1.05678E1,2.1254873E0],"tree_param":{"num_deleted":"0","num_feature":"49","num_nodes":"43","size_leaf_vector":"1"}},{"base_weights":[-1.8007895E-2,9.037155E-3,-9.0298975E-1,3.6116574E-2,-9.730437E-1,-1.0357262E0,-6.658758E-2,-2.689195E-1,1.2301248E-1,-1.0947558E0,5.8883548E-2,-1.1634097E0,-1.2363449E-1,-8.853701E-2,7.798459E-2,-6.797217E-1,-5.1593263E-2,1.7111415E-1,-6.053019E-1,-1.2356503E0,-1.652798E-1,-1.2286826E-1,-0E0,6.5914184E-2,-6.813913E-2,8.491061E-2,-7.3718525E-2,5.225997E-3,-1.0016673E-1,-3.895178E-2,2.3034537E-2,2.3111345E-2,-7.836305E-2,-6.5622136E-2,-1.4573123E-1,4.688344E-2,-8.656064E-2],"categories":[],"categories_nodes":[],"categories_segments":[],"categories_sizes":[],"default_left":[0,0,0,0,0,0,0,0,0,0,0,0,0,0,0,0,0,0,0,0,0,0,0,0,0,0,0,0,0,0,0,0,0,0,0,0,0],"id":26,"left_children":[1,3,5,7,9,11,13,15,17,19,-1,21,23,-1,-1,25,27,29,31,33,35,-1,-1,-1,-1,-1,-1,-1,-1,-1,-1,-1,-1,-1,-1,-1,-1],"loss_changes":[2.4031956E1,2.5770449E1,3.1262722E0,2.509961E1,5.6374817E0,2.6999168E0,4.339318E0,1.8626701E1,2.5892906E1,2.8678093E0,0E0,1.7712784E0,2.3502836E0,0E0,0E0,6.9720917E0,1.3811319E1,2.3073103E1,7.0639877E0,1.5361099E0,2.4334517E0,0E0,0E0,0E0,0E0,0E0,0E0,0E0,0E0,0E0,0E0,0E0,0E0,0E0,0E0,0E0,0E0],"parents":[2147483647,0,0,1,1,2,2,3,3,4,4,5,5,6,6,7,7,8,8,9,9,11,11,12,12,15,15,16,16,17,17,18,18,19,19,20,20],"right_children":[2,4,6,8,10,12,14,16,18,20,-1,22,24,-1,-1,26,28,30,32,34,36,-1,-1,-1,-1,-1,-1,-1,-1,-1,-1,-1,-1,-1,-1,-1,-1],"split_conditions":[9.102805E-1,9.268257E-1,4.3787136E0,2.5196094E-3,4.329501E0,1.7084982E0,2.5551705E0,2.8765798E-3,8.0614406E-1,2.8955495E0,5.8883548E-2,5.826072E0,1.063808E0,-8.853701E-2,7.798459E-2,-1.0834538E0,1.0147362E0,5.7964116E-2,4.7319758E-1,5.340385E-2,2.0034118E0,-1.2286826E-1,-0E0,6.5914184E-2,-6.813913E-2,8.491061E-2,-7.3718525E-2,5.225997E-3,-1.0016673E-1,-3.895178E-2,2.3034537E-2,2.3111345E-2,-7.836305E-2,-6.5622136E-2,-1.4573123E-1,4.688344E-2,-8.656064E-2],"split_indices":[6,2,43,37,38,44,38,47,1,35,0,39,43,0,0,3,43,32,37,37,40,0,0,0,0,0,0,0,0,0,0,0,0,0,0,0,0],"split_type":[0,0,0,0,0,0,0,0,0,0,0,0,0,0,0,0,0,0,0,0,0,0,0,0,0,0,0,0,0,0,0,0,0,0,0,0,0],"sum_hessian":[9.99001E2,9.702276E2,2.8773367E1,9.452294E2,2.4998245E1,2.4523617E1,4.2497516E0,2.0884885E2,7.363805E2,2.3527895E1,1.4703486E0,2.1174257E1,3.3493595E0,2.1968293E0,2.0529222E0,7.136428E1,1.3748457E2,6.9160565E2,4.477486E1,2.005141E1,3.476484E0,2.0054152E1,1.1201059E0,1.2433434E0,2.106016E0,2.0230837E0,6.9341194E1,1.2469393E2,1.2790639E1,6.539244E1,6.262132E2,7.718059E0,3.7056805E1,6.7689157E0,1.32824955E1,1.9230274E0,1.5534567E0],"tree_param":{"num_deleted":"0","num_feature":"49","num_nodes":"37","size_leaf_vector":"1"}},{"base_weights":[-1.0048587E-2,-3.612142E-1,6.159139E-2,-1.625623E-1,-9.286039E-1,1.033813E-1,-7.65439E-1,-3.8769403E-1,3.6239636E-1,-1.1391976E0,-7.185222E-2,1.3349296E-1,-1.0220397E0,1.2542072E-1,-9.382334E-1,-2.220259E-1,-1.2066154E0,7.170037E-1,-6.0702276E-1,-1.2494718E0,3.9888244E-2,5.0876725E-1,-9.7204484E-2,1.7275043E-1,-6.775813E-1,-1.095266E0,-0E0,6.83717E-1,-8.334529E-2,-9.622708E-2,-1.0474879E0,-5.3320516E-2,2.3977762E-2,-1.3083087E-1,-0E0,-9.824445E-2,1.00412324E-1,7.213956E-2,-1.12573735E-1,-5.3070277E-2,-1.4294961E-1,-7.2187684E-2,9.092894E-2,2.040323E-2,-8.658283E-2,-1.1682286E-1,-3.1610087E-2,-1.17097154E-1,-1.2252903E-2,1.07659094E-1,-1.4314385E-2,-6.6876166E-2,3.8690146E-2,-1.11432634E-1,-7.1888934E-3],"categories":[],"categories_nodes":[],"categories_segments":[],"categories_sizes":[],"default_left":[0,0,0,0,0,0,0,0,0,0,0,0,0,0,0,0,0,0,0,0,0,0,0,0,0,0,0,0,0,0,0,0,0,0,0,0,0,0,0,0,0,0,0,0,0,0,0,0,0,0,0,0,0,0,0],"id":27,"left_children":[1,3,5,7,9,11,13,15,17,19,21,23,25,27,29,31,33,35,37,39,-1,41,-1,43,45,47,-1,49,-1,51,53,-1,-1,-1,-1,-1,-1,-1,-1,-1,-1,-1,-1,-1,-1,-1,-1,-1,-1,-1,-1,-1,-1,-1,-1],"loss_changes":[2.4972197E1,1.870075E1,2.846871E1,1.5027351E1,7.6060867E0,2.6640768E1,6.295742E0,1.1630911E1,1.35722885E1,6.4486504E0,5.611088E0,2.4432783E1,1.5232944E0,4.421182E0,2.8559132E0,1.0956558E1,1.8978024E0,1.4890673E1,8.220403E0,3.2597275E0,0E0,3.8720613E0,0E0,2.3854437E1,5.763504E0,1.1338139E0,0E0,1.9301233E0,0E0,1.6811714E0,1.7146797E0,0E0,0E0,0E0,0E0,0E0,0E0,0E0,0E0,0E0,0E0,0E0,0E0,0E0,0E0,0E0,0E0,0E0,0E0,0E0,0E0,0E0,0E0,0E0,0E0],"parents":[2147483647,0,0,1,1,2,2,3,3,4,4,5,5,6,6,7,7,8,8,9,9,10,10,11,11,12,12,13,13,14,14,15,15,16,16,17,17,18,18,19,19,21,21,23,23,24,24,25,25,27,27,29,29,30,30],"right_children":[2,4,6,8,10,12,14,16,18,20,22,24,26,28,30,32,34,36,38,40,-1,42,-1,44,46,48,-1,50,-1,52,54,-1,-1,-1,-1,-1,-1,-1,-1,-1,-1,-1,-1,-1,-1,-1,-1,-1,-1,-1,-1,-1,-1,-1,-1],"split_conditions":[-6.144513E-1,1.5275407E0,8.251121E-1,1.2462655E0,5.1980567E-1,9.3436676E-1,-6.316952E-1,5.417049E-1,2.293519E0,3.062954E0,1.4913473E-1,8.1885594E-1,3.4644675E0,2.6982874E-2,1.1565613E0,1.3903705E-3,3.2315433E0,3.4623992E-1,-6.112288E-1,-7.6891816E-1,3.9888244E-2,-1.9049509E-1,-9.7204484E-2,8.7408596E-1,-1.620121E-1,6.7068255E-1,-0E0,1.8348082E0,-8.334529E-2,7.891883E-2,9.0193456E-1,-5.3320516E-2,2.3977762E-2,-1.3083087E-1,-0E0,-9.824445E-2,1.00412324E-1,7.213956E-2,-1.12573735E-1,-5.3070277E-2,-1.4294961E-1,-7.2187684E-2,9.092894E-2,2.040323E-2,-8.658283E-2,-1.1682286E-1,-3.1610087E-2,-1.17097154E-1,-1.2252903E-2,1.07659094E-1,-1.4314385E-2,-6.6876166E-2,3.8690146E-2,-1.11432634E-1,-7.1888934E-3],"split_indices":[2,47,0,36,14,2,16,16,45,45,4,1,42,45,36,41,38,45,1,0,0,3,0,14,5,0,0,46,0,15,2,0,0,0,0,0,0,0,0,0,0,0,0,0,0,0,0,0,0,0,0,0,0,0,0],"split_type":[0,0,0,0,0,0,0,0,0,0,0,0,0,0,0,0,0,0,0,0,0,0,0,0,0,0,0,0,0,0,0,0,0,0,0,0,0,0,0,0,0,0,0,0,0,0,0,0,0,0,0,0,0,0,0],"sum_hessian":[9.895592E2,1.6722208E2,8.223371E2,1.2494104E2,4.228103E1,7.83731E2,3.8606083E1,8.7757614E1,3.7183422E1,3.3580414E1,8.700618E0,7.64253E2,1.9478039E1,6.2222185E0,3.238386E1,7.415023E1,1.3607387E1,2.7490942E1,9.692479E0,3.1569653E1,2.0107596E0,5.4859476E0,3.2146702E0,7.298378E2,3.441518E1,1.8101196E1,1.3768435E0,4.179807E0,2.0424113E0,4.040496E0,2.8343367E1,4.433661E1,2.981362E1,1.2533559E1,1.0738283E0,3.5729275E0,2.3918015E1,2.5579908E0,7.1344886E0,7.2252803E0,2.4344372E1,1.0887235E0,4.397224E0,7.0937146E2,2.0466356E1,1.3535138E1,2.0880041E1,1.6509697E1,1.591499E0,2.7107441E0,1.469063E0,1.7680316E0,2.2724645E0,2.629705E1,2.0463157E0],"tree_param":{"num_deleted":"0","num_feature":"49","num_nodes":"55","size_leaf_vector":"1"}},{"base_weights":[-1.2082465E-2,5.724146E-2,-3.4709212E-1,-3.329125E-1,1.6729656E-1,-2.3266199E-1,-1.0609361E0,-5.321413E-1,1.8626222E-1,2.0838158E-1,-6.653385E-1,-4.0168107E-1,2.3333894E-1,3.4653726E-1,-1.4777519E-1,-9.1951066E-1,-2.5008586E-1,-1.4247912E-1,7.9708064E-1,2.578332E-1,-4.8730958E-1,-9.228281E-1,9.070426E-1,-8.1193405E-1,-1.4917539E-1,5.0744915E-1,-1.2864769E-1,1.0700865E-1,-8.3620876E-2,-1.06219806E-1,-3.0228732E-2,1.0678893E-1,-3.5557218E-2,-6.932206E-2,9.3129955E-2,1.13394596E-1,-1.1655215E-2,3.4017514E-2,-1.9163812E-2,-8.937503E-2,-1.1666242E-2,-0E0,-1.0278833E-1,1.1407315E-1,6.4516664E-3,-1.01098314E-1,-3.3079993E-2,-1.4764185E-1,-3.66812E-3,1.108485E-1,1.373402E-2],"categories":[],"categories_nodes":[],"categories_segments":[],"categories_sizes":[],"default_left":[0,0,0,0,0,0,0,0,0,0,0,0,0,0,0,0,0,0,0,0,0,0,0,0,0,0,0,0,0,0,0,0,0,0,0,0,0,0,0,0,0,0,0,0,0,0,0,0,0,0,0],"id":28,"left_children":[1,3,5,7,9,11,13,15,17,19,21,23,25,27,-1,29,31,33,35,37,39,41,43,45,47,49,-1,-1,-1,-1,-1,-1,-1,-1,-1,-1,-1,-1,-1,-1,-1,-1,-1,-1,-1,-1,-1,-1,-1,-1,-1],"loss_changes":[2.296762E1,3.5174057E1,1.3476517E1,1.876923E1,2.1955656E1,1.1732749E1,1.4134504E1,1.3922554E1,1.0332705E1,2.1085787E1,1.305615E1,1.105443E1,1.7134588E1,6.0670533E0,0E0,4.342682E0,1.102712E1,2.0501028E1,5.758544E0,2.118444E1,5.9243727E0,2.4677658E0,7.3045063E-1,3.4655323E0,1.0056361E1,7.3863096E0,0E0,0E0,0E0,0E0,0E0,0E0,0E0,0E0,0E0,0E0,0E0,0E0,0E0,0E0,0E0,0E0,0E0,0E0,0E0,0E0,0E0,0E0,0E0,0E0,0E0],"parents":[2147483647,0,0,1,1,2,2,3,3,4,4,5,5,6,6,7,7,8,8,9,9,10,10,11,11,12,12,13,13,15,15,16,16,17,17,18,18,19,19,20,20,21,21,22,22,23,23,24,24,25,25],"right_children":[2,4,6,8,10,12,14,16,18,20,22,24,26,28,-1,30,32,34,36,38,40,42,44,46,48,50,-1,-1,-1,-1,-1,-1,-1,-1,-1,-1,-1,-1,-1,-1,-1,-1,-1,-1,-1,-1,-1,-1,-1,-1,-1],"split_conditions":[5.377895E-1,-5.667373E-1,3.282325E0,7.062757E-1,3.6800454E0,1.89013E0,3.707683E-1,-4.938295E-1,4.908775E-1,8.0730414E-1,3.8796406E0,3.246051E-1,2.194317E0,-4.4207585E-1,-1.4777519E-1,5.108514E-1,0E0,6.841341E-1,1.921444E-1,5.512899E-1,2.1751597E0,-7.5146526E-1,2.109766E-1,1.8165088E0,-7.685595E-1,-1.9938563E0,-1.2864769E-1,1.0700865E-1,-8.3620876E-2,-1.06219806E-1,-3.0228732E-2,1.0678893E-1,-3.5557218E-2,-6.932206E-2,9.3129955E-2,1.13394596E-1,-1.1655215E-2,3.4017514E-2,-1.9163812E-2,-8.937503E-2,-1.1666242E-2,-0E0,-1.0278833E-1,1.1407315E-1,6.4516664E-3,-1.01098314E-1,-3.3079993E-2,-1.4764185E-1,-3.66812E-3,1.108485E-1,1.373402E-2],"split_indices":[1,1,48,33,33,46,46,11,5,5,45,48,33,16,0,5,11,43,15,15,35,15,16,47,0,5,0,0,0,0,0,0,0,0,0,0,0,0,0,0,0,0,0,0,0,0,0,0,0,0,0],"split_type":[0,0,0,0,0,0,0,0,0,0,0,0,0,0,0,0,0,0,0,0,0,0,0,0,0,0,0,0,0,0,0,0,0,0,0,0,0,0,0,0,0,0,0,0,0,0,0,0,0,0,0],"sum_hessian":[9.8584924E2,8.1726276E2,1.6858647E2,1.7916725E2,6.380955E2,1.465589E2,2.2027569E1,1.2960144E2,4.9565804E1,6.0891925E2,2.917629E1,1.0780905E2,3.8749847E1,5.0165925E0,1.7010977E1,5.3504654E1,7.6096794E1,3.2615322E1,1.695048E1,5.692299E2,3.968929E1,2.5480381E1,3.6959095E0,4.0079395E1,6.772965E1,3.344898E1,5.3008666E0,3.2240622E0,1.7925305E0,4.2741005E1,1.0763649E1,4.892838E0,7.120395E1,2.185396E1,1.0761363E1,1.2288065E1,4.6624155E0,4.8148825E2,8.77417E1,1.8128736E1,2.1560555E1,2.8005683E0,2.2679813E1,2.5233757E0,1.1725338E0,2.7424547E1,1.265485E1,4.2752724E0,6.345438E1,1.18843155E1,2.1564665E1],"tree_param":{"num_deleted":"0","num_feature":"49","num_nodes":"51","size_leaf_vector":"1"}},{"base_weights":[9.5640635E-3,-6.247132E-1,4.9252763E-2,-1.0744158E0,-0E0,1.3219726E-1,-3.0979615E-1,-1.616322E0,-3.656473E-1,-1.2155684E-1,2.7227268E-1,3.911258E-2,1.1492795E-1,-2.1908359E-1,-9.610693E-1,-1.2371697E-2,-1.7188035E-1,-1.2530701E0,4.6969995E-1,5.421796E-1,-1.0863527E-1,3.968539E-1,-8.515013E-2,-4.686519E-1,1.9032943E-1,-1.1207334E-1,-2.0943837E-1,-2.18457E-3,-1.443323E-1,8.488997E-2,-1.05519705E-1,7.991331E-2,-1.0033611E-1,-1.0959581E-1,5.0222453E-2,-4.3635327E-2,1.8963384E-2,-3.1048937E-2,-9.5979966E-2,4.024185E-2,-7.429795E-2,5.0886102E-2,-7.8148425E-2],"categories":[],"categories_nodes":[],"categories_segments":[],"categories_sizes":[],"default_left":[0,0,0,0,0,0,0,0,0,0,0,0,0,0,0,0,0,0,0,0,0,0,0,0,0,0,0,0,0,0,0,0,0,0,0,0,0,0,0,0,0,0,0],"id":29,"left_children":[1,3,5,7,9,11,13,15,17,-1,19,21,-1,23,25,-1,-1,27,29,31,-1,33,35,37,39,-1,41,-1,-1,-1,-1,-1,-1,-1,-1,-1,-1,-1,-1,-1,-1,-1,-1],"loss_changes":[2.4593363E1,1.617295E1,2.7466349E1,1.2060711E1,8.613417E0,7.079439E1,9.892071E0,2.4463158E0,1.2430266E1,0E0,8.346001E0,3.0639297E1,0E0,1.5778663E1,2.1188831E0,0E0,0E0,1.7017765E0,5.9887147E0,8.128261E0,0E0,2.844233E1,4.942923E1,7.0067787E0,1.1866352E1,0E0,2.467059E0,0E0,0E0,0E0,0E0,0E0,0E0,0E0,0E0,0E0,0E0,0E0,0E0,0E0,0E0,0E0,0E0],"parents":[2147483647,0,0,1,1,2,2,3,3,4,4,5,5,6,6,7,7,8,8,10,10,11,11,13,13,14,14,17,17,18,18,19,19,21,21,22,22,23,23,24,24,26,26],"right_children":[2,4,6,8,10,12,14,16,18,-1,20,22,-1,24,26,-1,-1,28,30,32,-1,34,36,38,40,-1,42,-1,-1,-1,-1,-1,-1,-1,-1,-1,-1,-1,-1,-1,-1,-1,-1],"split_conditions":[-1.4353932E0,1.6944859E0,5E-1,-9.168229E-1,-7.7106345E-1,3.5214573E-3,2.3685644E0,-7.7453583E-1,3.300716E0,-1.2155684E-1,-7.667339E-1,-8.810957E-1,1.1492795E-1,8.0383325E-1,6.3236076E-1,-1.2371697E-2,-1.7188035E-1,1.9944072E-2,3.742489E0,-9.887111E-1,-1.0863527E-1,1.5729112E-3,-4.938295E-1,3.446377E-1,3.376076E0,-1.1207334E-1,2.3399189E-1,-2.18457E-3,-1.443323E-1,8.488997E-2,-1.05519705E-1,7.991331E-2,-1.0033611E-1,-1.0959581E-1,5.0222453E-2,-4.3635327E-2,1.8963384E-2,-3.1048937E-2,-9.5979966E-2,4.024185E-2,-7.429795E-2,5.0886102E-2,-7.8148425E-2],"split_indices":[7,45,11,4,0,11,37,2,44,0,0,4,0,44,2,0,0,37,44,6,0,33,11,15,43,0,6,0,0,0,0,0,0,0,0,0,0,0,0,0,0,0,0],"split_type":[0,0,0,0,0,0,0,0,0,0,0,0,0,0,0,0,0,0,0,0,0,0,0,0,0,0,0,0,0,0,0,0,0,0,0,0,0,0,0,0,0,0,0],"sum_hessian":[9.770128E2,5.65182E1,9.204946E2,3.2455822E1,2.4062378E1,7.484941E2,1.7200056E2,1.7587397E1,1.4868425E1,3.760579E0,2.0301798E1,6.867762E2,6.1717873E1,1.5228017E2,1.97204E1,1.3344604E0,1.6252935E1,7.0250673E0,7.8433585E0,1.7499798E1,2.8020017E0,1.7669579E2,5.100804E2,9.467073E1,5.7609432E1,1.5750507E1,3.9698918E0,1.1598061E0,5.8652616E0,6.688899E0,1.1544594E0,1.5474699E1,2.025098E0,1.0967432E1,1.6572835E2,2.2380708E2,2.8627332E2,7.2998924E1,2.1671806E1,4.7492916E1,1.0116518E1,1.7314321E0,2.2384596E0],"tree_param":{"num_deleted":"0","num_feature":"49","num_nodes":"43","size_leaf_vector":"1"}},{"base_weights":[-3.5229404E-2,1.1352886E-3,-7.1126354E-1,-2.888777E-1,7.7330194E-2,-1.1922975E0,-3.3227256E-1,-6.268239E-1,-1.0982609E-1,-6.0234636E-1,1.2263077E-1,-1.2554392E-1,-8.1270153E-4,-7.933423E-1,1.0783109E-2,6.0551286E-1,-6.9178647E-1,-5.8989453E-1,9.974491E-2,-1.1329778E0,1.7060997E-1,5.066647E-1,1.4880111E-2,3.2837372E-2,-9.3006283E-1,8.4308803E-1,-3.480931E-1,1.1701596E-1,-2.515074E-2,-8.493521E-2,-2.5027765E-2,-7.868978E-2,1.03910245E-1,2.523723E-2,-6.734366E-2,-1.7990863E-2,-1.4727712E-1,-4.5112174E-2,1.1821856E-1,7.551403E-2,-1.9925727E-2,-8.600612E-2,1.1123059E-2,-7.4366615E-3,-1.0035572E-1,1.00601494E-1,2.4946346E-3,-8.203716E-2,1.2431455E-2],"categories":[],"categories_nodes":[],"categories_segments":[],"categories_sizes":[],"default_left":[0,0,0,0,0,0,0,0,0,0,0,0,0,0,0,0,0,0,0,0,0,0,0,0,0,0,0,0,0,0,0,0,0,0,0,0,0,0,0,0,0,0,0,0,0,0,0,0,0],"id":30,"left_children":[1,3,5,7,9,11,13,15,17,19,21,-1,-1,23,25,27,29,31,33,35,37,39,41,-1,43,45,47,-1,-1,-1,-1,-1,-1,-1,-1,-1,-1,-1,-1,-1,-1,-1,-1,-1,-1,-1,-1,-1,-1],"loss_changes":[2.3749985E1,2.0217209E1,8.440405E0,1.1371731E1,2.2365948E1,1.4504986E0,4.6866713E0,5.6708584E0,1.2763479E1,1.8897741E1,2.8128275E1,0E0,0E0,2.2894087E0,5.581137E0,2.194024E0,4.0434875E0,1.3152781E1,1.0545105E1,8.348843E0,1.2719557E1,2.634449E1,4.4968506E1,0E0,5.421791E-1,6.262226E-1,3.044602E0,0E0,0E0,0E0,0E0,0E0,0E0,0E0,0E0,0E0,0E0,0E0,0E0,0E0,0E0,0E0,0E0,0E0,0E0,0E0,0E0,0E0,0E0],"parents":[2147483647,0,0,1,1,2,2,3,3,4,4,5,5,6,6,7,7,8,8,9,9,10,10,13,13,14,14,15,15,16,16,17,17,18,18,19,19,20,20,21,21,22,22,24,24,25,25,26,26],"right_children":[2,4,6,8,10,12,14,16,18,20,22,-1,-1,24,26,28,30,32,34,36,38,40,42,-1,44,46,48,-1,-1,-1,-1,-1,-1,-1,-1,-1,-1,-1,-1,-1,-1,-1,-1,-1,-1,-1,-1,-1,-1],"split_conditions":[8.0133235E-1,2.5196094E-3,-4.938295E-1,2.8765798E-3,-1.4353932E0,9.5463806E-1,2.2986427E-1,-1.4742602E0,4.5714434E-3,6.6320324E-1,-1.0240713E0,-1.2554392E-1,-8.1270153E-4,-5.9354514E-1,5.4440284E-1,-1.0888529E0,1.3903705E-3,7.517438E-1,7.8341156E-2,2.658404E-1,3.0280048E-1,3.9300847E-1,1.1272815E-2,3.2837372E-2,-7.7568996E-1,1.2243408E0,2.852882E-1,1.1701596E-1,-2.515074E-2,-8.493521E-2,-2.5027765E-2,-7.868978E-2,1.03910245E-1,2.523723E-2,-6.734366E-2,-1.7990863E-2,-1.4727712E-1,-4.5112174E-2,1.1821856E-1,7.551403E-2,-1.9925727E-2,-8.600612E-2,1.1123059E-2,-7.4366615E-3,-1.0035572E-1,1.00601494E-1,2.4946346E-3,-8.203716E-2,1.2431455E-2],"split_indices":[16,37,11,47,7,5,7,7,35,43,3,0,0,5,40,3,41,16,43,37,39,1,36,0,1,36,3,0,0,0,0,0,0,0,0,0,0,0,0,0,0,0,0,0,0,0,0,0,0],"split_type":[0,0,0,0,0,0,0,0,0,0,0,0,0,0,0,0,0,0,0,0,0,0,0,0,0,0,0,0,0,0,0,0,0,0,0,0,0,0,0,0,0,0,0,0,0,0,0,0,0],"sum_hessian":[9.6216223E2,9.138552E2,4.830698E1,1.8928711E2,7.245681E2,2.0225698E1,2.8081282E1,6.4496185E1,1.24790924E2,4.4368717E1,6.801994E2,1.9064518E1,1.1611805E0,1.15444145E1,1.6536867E1,2.7359042E0,6.176028E1,3.75156E1,8.727533E1,2.6108759E1,1.825996E1,1.480181E2,5.3218134E2,1.0224639E0,1.0521951E1,4.659641E0,1.1877227E1,1.4993567E0,1.2365474E0,4.466868E1,1.7091602E1,3.398406E1,3.531541E0,7.3557816E1,1.3717515E1,7.341294E0,1.8767466E1,1.1591073E1,6.668887E0,1.0953507E2,3.848303E1,5.1902233E1,4.8027908E2,1.0989835E0,9.422967E0,3.5923822E0,1.0672588E0,5.6769423E0,6.2002845E0],"tree_param":{"num_deleted":"0","num_feature":"49","num_nodes":"49","size_leaf_vector":"1"}},{"base_weights":[-6.558009E-3,2.1328757E-2,-8.7869346E-1,4.2875517E-2,-1.0091591E0,-4.8465547E-1,-1.1040028E0,6.816041E-2,-7.960124E-1,-1.1376984E0,-0E0,-1.0616722E-1,1.645617E-1,-1.20782934E-1,-3.3121791E-3,-5.0300425E-1,1.1178479E-1,-1.083977E0,-2.0597017E-1,-1.2119049E-1,-3.4146897E-2,-6.792925E-2,6.7924276E-2,-5.5115736E-1,9.109605E-1,-7.928316E-2,4.021517E-2,1.4648191E-2,-6.2320035E-2,-1.9107794E-2,-1.21285655E-1,-5.559366E-2,9.216682E-2,4.648683E-3,-8.7681256E-2,1.162106E-1,1.7643744E-2],"categories":[],"categories_nodes":[],"categories_segments":[],"categories_sizes":[],"default_left":[0,0,0,0,0,0,0,0,0,0,0,0,0,0,0,0,0,0,0,0,0,0,0,0,0,0,0,0,0,0,0,0,0,0,0,0,0],"id":31,"left_children":[1,3,5,7,9,11,13,15,17,19,21,-1,23,-1,-1,25,27,29,31,-1,-1,-1,-1,33,35,-1,-1,-1,-1,-1,-1,-1,-1,-1,-1,-1,-1],"loss_changes":[2.3253849E1,2.0445036E1,1.9363422E0,1.9184908E1,2.4102325E0,5.030097E0,1.8266735E0,2.1941116E1,4.1423492E0,4.1733932E-1,1.9182884E0,0E0,4.154989E0,0E0,0E0,1.674223E1,2.0915285E1,1.6334515E0,4.431767E0,0E0,0E0,0E0,0E0,9.044324E-1,3.5465026E-1,0E0,0E0,0E0,0E0,0E0,0E0,0E0,0E0,0E0,0E0,0E0,0E0],"parents":[2147483647,0,0,1,1,2,2,3,3,4,4,5,5,6,6,7,7,8,8,9,9,10,10,12,12,15,15,16,16,17,17,18,18,23,23,24,24],"right_children":[2,4,6,8,10,12,14,16,18,20,22,-1,24,-1,-1,26,28,30,32,-1,-1,-1,-1,34,36,-1,-1,-1,-1,-1,-1,-1,-1,-1,-1,-1,-1],"split_conditions":[9.102805E-1,9.3436676E-1,-1.2735412E-1,8.7408596E-1,7.1011484E-1,8.367435E-1,5.301079E0,-8.2122016E-1,1.0813165E0,2.7217734E0,1E0,-1.0616722E-1,1.5560238E-1,-1.20782934E-1,-3.3121791E-3,1.6912486E-1,8.251121E-1,-5.708223E-1,5.8907974E-1,-1.2119049E-1,-3.4146897E-2,-6.792925E-2,6.7924276E-2,9.4119704E-1,9.5645225E-1,-7.928316E-2,4.021517E-2,1.4648191E-2,-6.2320035E-2,-1.9107794E-2,-1.21285655E-1,-5.559366E-2,9.216682E-2,4.648683E-3,-8.7681256E-2,1.162106E-1,1.7643744E-2],"split_indices":[6,2,15,14,0,42,39,2,34,35,9,0,2,0,0,27,0,2,6,0,0,0,0,6,6,0,0,0,0,0,0,0,0,0,0,0,0],"split_type":[0,0,0,0,0,0,0,0,0,0,0,0,0,0,0,0,0,0,0,0,0,0,0,0,0,0,0,0,0,0,0,0,0,0,0,0,0],"sum_hessian":[9.50825E2,9.2219836E2,2.8626656E1,9.043446E2,1.785376E1,1.1721724E1,1.6904932E1,8.788919E2,2.5452698E1,1.5696266E1,2.1574948E0,5.9511395E0,5.770584E0,1.5209083E1,1.6958494E0,6.1454796E1,8.174371E2,1.6428383E1,9.024314E0,1.3765694E1,1.9305724E0,1.101584E0,1.0559108E0,3.0109737E0,2.7596102E0,4.6727432E1,1.4727365E1,7.8148175E2,3.5955364E1,2.4831603E0,1.3945223E1,7.34152E0,1.6827946E0,1.2560474E0,1.7549263E0,1.5212153E0,1.238395E0],"tree_param":{"num_deleted":"0","num_feature":"49","num_nodes":"37","size_leaf_vector":"1"}},{"base_weights":[-1.1108392E-2,5.2422777E-2,-3.7008408E-1,-1.79819E-2,1.1269595E-1,-8.567991E-1,-2.4835706E-1,2.3009587E-2,-6.7950904E-1,5.6018453E-2,-9.3909305E-1,-1.0711861E-1,-1.6253272E-1,-6.6974956E-1,6.1682433E-2,-8.9179695E-1,-9.6551746E-2,-1.9538859E-2,-1.0814689E0,1.5223266E-2,-5.8671606E-1,-8.642762E-2,1.1328604E-1,1.6745731E-2,-2.6638059E-2,3.1548694E-2,-9.77686E-2,-5.3178072E-2,8.945016E-2,8.9375384E-2,-8.217056E-2,-4.0601328E-2,-1.1352167E-1,1.5041011E-2,-8.537167E-2,-9.944095E-2,-1.1494668E-2],"categories":[],"categories_nodes":[],"categories_segments":[],"categories_sizes":[],"default_left":[0,0,0,0,0,0,0,0,0,0,0,0,0,0,0,0,0,0,0,0,0,0,0,0,0,0,0,0,0,0,0,0,0,0,0,0,0],"id":32,"left_children":[1,3,5,7,-1,9,11,13,15,-1,17,-1,19,21,23,25,27,29,31,33,35,-1,-1,-1,-1,-1,-1,-1,-1,-1,-1,-1,-1,-1,-1,-1,-1],"loss_changes":[2.1737135E1,6.1299183E1,8.169205E0,2.0682562E1,0E0,3.841259E0,7.911058E0,1.9168581E1,5.3226624E0,0E0,3.4040203E0,0E0,8.099871E0,1.4212589E1,2.3610405E1,3.7318935E0,6.1017113E0,4.194576E0,2.2975922E-1,8.973043E0,5.8632803E0,0E0,0E0,0E0,0E0,0E0,0E0,0E0,0E0,0E0,0E0,0E0,0E0,0E0,0E0,0E0,0E0],"parents":[2147483647,0,0,1,1,2,2,3,3,5,5,6,6,7,7,8,8,10,10,12,12,13,13,14,14,15,15,16,16,17,17,18,18,19,19,20,20],"right_children":[2,4,6,8,-1,10,12,14,16,-1,18,-1,20,22,24,26,28,30,32,34,36,-1,-1,-1,-1,-1,-1,-1,-1,-1,-1,-1,-1,-1,-1,-1,-1],"split_conditions":[5E-1,8.135491E-4,-2.3553246E-1,7.846549E-1,1.1269595E-1,-9.8943967E-1,-4.7351778E-1,-8.965234E-1,1.9018377E0,5.6018453E-2,6.348169E-2,-1.0711861E-1,2.3787124E0,4.3753386E0,3.9213267E-1,-7.981813E-1,3.0933684E-1,-1.2641472E-1,-5.5581045E-1,1.9348865E0,1.805675E0,-8.642762E-2,1.1328604E-1,1.6745731E-2,-2.6638059E-2,3.1548694E-2,-9.77686E-2,-5.3178072E-2,8.945016E-2,8.9375384E-2,-8.217056E-2,-4.0601328E-2,-1.1352167E-1,1.5041011E-2,-8.537167E-2,-9.944095E-2,-1.1494668E-2],"split_indices":[10,10,5,1,0,15,6,15,46,0,32,0,35,39,15,16,5,6,0,41,36,0,0,0,0,0,0,0,0,0,0,0,0,0,0,0,0],"split_type":[0,0,0,0,0,0,0,0,0,0,0,0,0,0,0,0,0,0,0,0,0,0,0,0,0,0,0,0,0,0,0,0,0,0,0,0,0],"sum_hessian":[9.498826E2,8.075403E2,1.423423E2,7.5871857E2,4.882177E1,2.7105017E1,1.1523729E2,7.1521436E2,4.350416E1,1.1023228E0,2.6002695E1,9.689948E0,1.0554734E2,3.681586E1,6.783985E2,3.1376774E1,1.212739E1,3.7328916E0,2.2269804E1,7.489191E1,3.0655434E1,3.3749805E1,3.0660553E0,5.1359753E2,1.64801E2,1.8290845E0,2.954769E1,8.818845E0,3.3085446E0,1.6338564E0,2.0990353E0,2.4090872E0,1.9860716E1,6.562428E1,9.267625E0,1.5736486E1,1.4918947E1],"tree_param":{"num_deleted":"0","num_feature":"49","num_nodes":"37","size_leaf_vector":"1"}},{"base_weights":[-1.9532464E-2,-3.0227178E-1,5.4036897E-2,-3.8374034E-1,5.229728E-1,8.909833E-2,-8.1059855E-1,-2.9759794E-1,-1.0719609E0,1.2810758E0,-1.4480162E-2,1.350894E-1,-6.248871E-1,-9.029008E-1,4.9635224E-2,-5.6756294E-1,-9.754654E-2,-1.1181718E-1,-1.1966025E-2,-5.9579257E-3,1.5399619E0,1.1482308E-1,-3.439543E-1,4.022746E-1,1.2299614E-2,-1.2653834E-1,-1.3235731E0,1.5854299E-2,-9.8833436E-1,-7.7568695E-2,-2.1376675E-2,8.145959E-3,-7.499749E-2,2.6666706E-2,1.7940795E-1,-6.988592E-2,4.4938244E-2,-1.2100677E-3,7.2384454E-2,-6.6457056E-2,1.0924811E-2,9.8647535E-2,-4.0413447E-2,-1.6149782E-1,-6.5609785E-3,-1.1119232E-1,-0E0],"categories":[],"categories_nodes":[],"categories_segments":[],"categories_sizes":[],"default_left":[0,0,0,0,0,0,0,0,0,0,0,0,0,0,0,0,0,0,0,0,0,0,0,0,0,0,0,0,0,0,0,0,0,0,0,0,0,0,0,0,0,0,0,0,0,0,0],"id":33,"left_children":[1,3,5,7,9,11,13,15,17,19,21,23,25,27,-1,29,31,-1,-1,-1,33,-1,35,37,39,41,43,-1,45,-1,-1,-1,-1,-1,-1,-1,-1,-1,-1,-1,-1,-1,-1,-1,-1,-1,-1],"loss_changes":[1.9665413E1,1.3312267E1,2.2712402E1,1.0118948E1,7.41985E0,2.3711464E1,4.00947E0,8.521645E0,5.9304047E-1,2.8411665E0,4.6660285E0,2.220825E1,1.4896275E1,2.7502766E0,0E0,4.720152E0,1.102968E1,0E0,0E0,0E0,1.380435E0,0E0,3.0666347E0,2.8501957E1,3.059937E1,8.585001E0,6.3226852E0,0E0,3.220848E0,0E0,0E0,0E0,0E0,